SVM-light Version V6.02
0 # kernel type
3 # kernel parameter -d 
1 # kernel parameter -g 
1 # kernel parameter -s 
1 # kernel parameter -r 
empty# kernel parameter -u 
49022 # highest feature index 
1102 # number of training documents 
552 # number of support vectors plus 1 
-57.280115 # threshold b, each following line is a SV (starting with alpha*y)
-0.00266669232680158711443207941727 2:0.0019438814 12:0.0078165671 16:0.0023676928 19:0.0021321632 21:0.007404421 22:0.0070214337 23:0.0010802206 27:0.013574773 30:0.0011872979 34:0.0051549766 38:0.0017515835 40:0.0063631744 41:0.012957737 47:0.0032066391 48:0.0034439168 54:0.0066761174 55:0.012652215 56:0.0026733687 67:0.0029581827 73:0.0032066391 75:0.0018099697 79:0.0025856709 82:0.0030315868 89:0.0029510374 90:0.023449702 93:0.019466691 95:0.012826556 99:0.00133086 100:0.00081940275 103:0.00096732343 107:0.0090865614 114:0.0038662325 115:0.047648195 120:0.0092555266 121:0.0099327601 124:0.009832833 134:0.10370319 141:0.0011187999 161:0.0059888703 162:0.012130647 165:0.0066218399 167:0.0031898941 175:0.0022878828 182:0.010532151 183:0.0025452697 186:0.0022499622 189:0.001060529 190:0.0080642207 194:0.0012969527 197:0.0038149243 200:0.013804853 204:0.0035208343 209:0.0028085737 215:0.0077422652 217:0.0036039217 221:0.0050905393 222:0.0034512132 225:0.0062652794 230:0.0037191156 232:0.0052210661 235:0.0030505105 236:0.0020991915 237:0.0047353855 238:0.0022751014 239:0.0067873863 246:0.0084590567 247:0.003284219 256:0.0065684379 261:0.0013352234 262:0.10558156 263:0.0041555427 270:0.0027516431 280:0.0047353855 281:0.0053584627 285:0.0012303418 286:0.013136876 288:0.0030929861 293:0.0020464479 294:0.0079851598 296:0.0066761174 302:0.0057358192 304:0.0037022105 309:0.0017629574 312:0.004906544 313:0.0017706224 317:0.0029944351 319:0.002006124 325:0.0069317985 327:0.016968464 347:0.002610533 352:0.0038692937 358:0.0050276932 361:0.0035107168 362:0.0015784618 367:0.0011096544 371:0.0039925799 373:0.0016224827 380:0.0086647477 384:0.0034222114 386:0.0042421161 394:0.10716926 402:0.0024240664 404:0.0051988489 405:0.012575204 419:0.0036688573 422:0.0050652134 440:0.0056042639 444:0.0020362157 456:0.0055281878 457:0.002381539 467:0.0022751014 468:0.0024240664 474:0.0017553584 479:0.0020937952 481:0.0059266156 484:0.018511053 485:0.0010859817 486:0.0042568971 493:0.0049663801 494:0.0011126862 497:0.0013574772 498:0.081448629 499:0.0025373406 503:0.0061173867 507:0.015663199 513:0.0033563997 517:0.0014596529 529:0.0046809558 538:0.0059020747 541:0.0022624619 549:0.0017629574 552:0.0027423783 561:0.0031087263 574:0.004906544 581:0.00265305 597:0.0048481328 598:0.0040724315 600:0.004906544 619:0.010181079 627:0.0012192909 647:0.0048481328 648:0.0027331756 658:0.0046277633 664:0.017207457 665:0.0029510374 667:0.042694848 678:0.022624619 693:0.0041344482 705:0.0094707711 708:0.0061703511 723:0.0048289704 724:0.00133086 727:0.018382505 753:0.0071446169 770:0.0054541496 771:0.0062652794 786:0.0054299086 792:0.0022193089 807:0.0025612777 811:0.0016096567 813:0.0022499622 821:0.0013352234 826:0.0071625682 841:0.0027393037 856:0.0023008089 865:0.033936929 866:0.019089524 874:0.0050905393 879:0.0072721993 900:0.0016690294 904:0.0026880738 906:0.0079851598 912:0.0052210661 913:0.035412449 924:0.0027893367 927:0.018941542 929:0.10181079 933:0.0052210661 937:0.013462584 942:0.019392531 954:0.0040724315 978:0.011635519 999:0.0022624619 1036:0.0062652794 1037:0.0039925799 1050:0.0044999244 1051:0.045249239 1052:0.0024097229 1067:0.0078315996 1073:0.0026617199 1123:0.0022132781 1130:0.010442132 1132:0.0032579454 1173:0.0034807108 1179:0.0065684379 1205:0.0059888703 1206:0.0055032861 1221:0.0042867702 1242:0.011635519 1247:0.0088531123 1251:0.0023271039 1254:0.0023271039 1275:0.0094707711 1280:0.01508308 1297:0.058177594 1309:0.0075415401 1332:0.0061703511 1335:0.0082688965 1336:0.0053584627 1339:0.021433851 1342:0.0067873863 1348:0.0052210661 1366:0.0092555266 1393:0.0099327601 1417:0.0061703511 1432:0.0061703511 1434:0.050905395 1464:0.029088797 1515:0.0020260853 1516:0.0037361758 1521:0.0026969747 1523:0.00331092 1539:0.019392531 1590:0.0019030054 1593:0.0021433851 1610:0.019392531 1681:0.021433851 1689:0.015663199 1696:0.01986552 1746:0.0093619116 1748:0.0078315996 1752:0.050905395 1774:0.01508308 1794:0.019392531 1801:0.0084842322 1826:0.022013145 1865:0.0030619786 1888:0.0021894793 1911:0.0025612777 1919:0.0057764989 1920:0.16289726 1941:0.0021321632 2014:0.0050905393 2039:0.01131231 2044:0.012340702 2052:0.033936929 2055:0.027149545 2068:0.0063631744 2092:0.0086647477 2106:0.022624619 2118:0.0055786734 2169:0.0072078435 2174:0.019392531 2180:0.067873858 2219:0.013574773 2297:0.045249239 2319:0.022624619 2321:0.0092555266 2339:0.023955481 2414:0.029088797 2490:0.019392531 2492:0.0086647477 2552:0.011635519 2574:0.010716925 2681:0.0029510374 2688:0.0055786734 2690:0.0038785064 2739:0.012726349 2761:0.040724315 2775:0.010716925 2780:0.0071446169 2793:0.0055786734 2809:0.011861451 2814:0.0086647477 2940:0.011635519 2961:0.037022106 2967:0.037022106 2989:0.0083110854 3090:0.045249239 3095:0.0094707711 3154:0.0051549766 3196:0.0060782563 3218:0.014544399 3391:0.040724315 3432:0.010442132 3437:0.0069024265 3453:0.022624619 3477:0.01131231 3480:0.023955481 3509:0.0076838331 3618:0.0037361758 3623:0.021433851 3708:0.0083110854 3721:0.058177594 3743:0.014042867 3812:0.01597032 3863:0.013136876 3878:0.010716925 3903:0.022624619 3962:0.0066761174 3981:0.050905395 4041:0.040724315 4266:0.020362157 4329:0.022624619 4346:0.016968464 4418:0.018511053 4456:0.037022106 4591:0.0035107168 4648:0.029088797 5023:0.088531122 5101:0.0076838331 5150:0.033936929 5189:0.040724315 5314:0.058177594 5345:0.023955481 5386:0.014042867 5391:0.063631743 5919:0.012340702 6089:0.037022106 6138:0.016289726 6236:0.011977741 6309:0.022624619 6459:0.13574772 6596:0.020362157 6659:0.023955481 6681:0.020362157 6963:0.011635519 7032:0.067873858 7042:0.10181079 7086:0.0090498477 7156:0.033936929 7248:0.014544399 7312:0.012340702 7943:0.021433851 8005:0.031940639 8179:0.045249239 8848:0.015663199 9171:0.050905395 9207:0.029088797 9491:0.037022106 9539:0.029088797 9725:0.15271619 9795:0.040724315 9856:0.037022106 9858:0.058177594 10038:0.033936929 10298:0.025452698 10591:0.040724315 10957:0.067873858 11364:0.040724315 11382:0.20362158 11399:0.13574772 11414:0.019392531 11460:0.074044213 11739:0.045249239 11824:0.13574772 12040:0.13574772 12080:0.027149545 12148:0.13574772 12291:0.016968464 12549:0.045249239 12724:0.050905395 12958:0.20362158 13039:0.058177594 13048:0.067873858 13207:0.13574772 13254:0.13574772 13566:0.10181079 13630:0.10181079 13773:0.13574772 13834:0.045249239 13948:0.050905395 14293:0.045249239 15135:0.050905395 15339:0.20362158 15482:0.040724315 15483:0.13574772 15852:0.067873858 15999:0.029088797 16081:0.081448629 16207:0.20362158 16422:0.10181079 16603:0.20362158 16687:0.067873858 16752:0.081448629 17102:0.021433851 17451:0.40724316 17542:0.27149543 17567:0.20362158 17641:1.0181079 18006:0.50905395 18355:0.067873858 18498:0.081448629 18529:0.058177594 18638:0.067873858 19539:0.40724316 20218:0.10181079 20901:0.025452698 20936:0.81448632 21029:0.20362158 21912:0.081448629 22323:0.40724316 22735:0.037022106 23828:0.20362158 23850:0.20362158 24302:0.067873858 24408:0.20362158 24579:0.058177594 24686:0.13574772 24717:0.13574772 24914:0.10181079 24982:0.10181079 25216:0.20362158 25617:0.20362158 26100:1.2217295 26129:1.2217295 26159:0.81448632 26285:0.20362158 26851:0.081448629 26922:0.10181079 28688:18.936808 28877:0.20362158 30475:0.27149543 30664:0.13574772 31497:0.27149543 31603:0.20362158 32076:0.40724316 32077:6.9231339 32078:1.2217295 32079:0.20362158 32080:0.40724316 32081:0.40724316 32082:0.40724316 32083:0.20362158 32084:0.40724316 32085:0.40724316 32086:0.40724316 32087:0.40724316 32088:0.81448632 32089:1.2217295 32090:0.40724316 32091:0.40724316 32092:0.40724316 32093:0.067873858 32094:0.40724316 32095:0.40724316 32096:0.40724316 32097:0.40724316 32098:0.20362158 32099:0.10181079 32100:0.40724316 32101:0.40724316 32102:0.40724316 32103:0.81448632 32104:0.40724316 32105:0.40724316 32106:0.40724316 32107:0.40724316 32108:0.27149543 32109:0.40724316 32110:0.40724316 32111:0.20362158 32112:0.81448632 32113:0.40724316 32114:0.40724316 32115:0.40724316 32116:0.40724316 32117:0.40724316 32118:0.40724316 32119:0.40724316 32120:0.40724316 32121:0.40724316 32122:0.40724316 32123:0.40724316 32124:0.40724316 32125:0.20362158 32126:0.40724316 32127:0.81448632 32128:0.40724316 32129:0.40724316 32130:0.40724316 32131:0.40724316 32132:0.40724316 32133:0.40724316 32134:1.2217295 32135:0.40724316 32136:0.20362158 32137:0.20362158 32138:0.40724316 32139:0.40724316 32140:0.40724316 32141:0.61086476 32142:0.40724316 32143:0.40724316 32144:0.40724316 32145:0.40724316 32146:0.40724316 32147:0.20362158 32148:0.40724316 32149:0.40724316 32150:0.40724316 32151:0.40724316 32152:1.6289726 32153:0.40724316 32154:0.40724316 32155:0.40724316 32156:0.40724316 32157:0.40724316 32158:0.40724316 32159:0.40724316 32160:0.27149543 32161:0.13574772 32162:0.40724316 32163:0.40724316 32164:0.40724316 32165:0.40724316 32166:0.40724316 32167:0.40724316 32168:0.40724316 32169:0.40724316 32170:1.2217295 32171:0.40724316 32172:0.40724316 32173:0.40724316 32174:0.20362158 32175:0.20362158 32176:0.40724316 32177:0.40724316 32178:0.40724316 32179:0.40724316 32180:0.40724316 32181:0.40724316 32182:4.0724316 32183:0.40724316 32184:0.40724316 32185:0.40724316 32186:0.40724316 32187:0.20362158 32188:0.40724316 32189:0.40724316 32190:0.40724316 32191:0.40724316 #
0.00266669232680158711443207941727 1:0.012534692 2:0.00092738774 12:0.01789983 13:0.0031086036 14:0.0034085566 17:0.0021527726 19:0.0020344264 23:0.0020614082 25:0.02989042 28:0.088817246 30:0.004531492 34:0.00098373531 35:0.048571933 37:0.008732033 38:0.0050138771 40:0.011384047 41:0.0079481341 47:0.0030596494 48:0.0057505881 55:0.012826763 56:0.00085027452 67:0.0056451638 68:0.0023337866 74:0.0010884467 75:0.00086350105 82:0.00096420711 84:0.00189549 88:0.013877694 90:0.02759557 93:0.011144612 95:0.0076491232 100:0.0023455259 103:0.0073838569 107:0.0070936698 110:0.0049817367 114:0.0024593384 115:0.062513053 116:0.00157318 120:0.0073593836 121:0.016038762 124:0.0054728938 134:0.028890369 141:0.001067515 148:0.011775014 157:0.01022567 164:0.0011846813 167:0.0020291146 168:0.0056315283 174:0.018503593 176:0.25905031 186:0.0042936513 189:0.0020238305 190:0.0046167383 192:0.002899817 204:0.001119814 212:0.004950006 215:0.0014774732 224:0.0042236461 225:0.0019926946 230:0.0053229514 235:0.0014553388 236:0.0020029664 237:0.00090366387 246:0.0034591288 256:0.0037604077 261:0.0025480357 273:0.0067383028 285:0.002347888 288:0.0019674706 291:0.0012494387 292:0.00427006 301:0.0050464347 304:0.00088312605 317:0.0028571724 320:0.0053229514 325:0.0016535126 329:0.00213503 330:0.077715091 337:0.011775014 349:0.0037363025 351:0.0056315283 352:0.0018459642 361:0.0041872356 362:0.0075305323 367:0.0021175775 369:0.0041782307 375:0.0082675628 384:0.0016326699 385:0.011775014 386:0.0040476611 387:0.055510778 396:0.0024135122 402:0.0023129492 404:0.0041337814 405:0.00092298212 419:0.0035006797 422:0.0019332112 424:0.0048270244 427:0.0048571932 435:0.048571933 446:0.25905031 458:0.003597921 473:0.0016123463 474:0.0033497885 479:0.0019978173 481:0.0024235474 482:0.0016056837 483:0.0021708126 485:0.0010362013 486:0.002707843 493:0.00094774499 494:0.0010616815 499:0.002421031 501:0.0025069385 503:0.0016677058 504:0.0043015731 506:0.0039449283 529:0.0044663846 549:0.0033642896 552:0.0013083349 567:0.0023986138 568:0.0038472817 579:0.0030839322 581:0.0012657181 614:0.0037007187 616:0.0098373536 658:0.017662521 671:0.0052510197 685:0.0019141649 693:0.0019724641 695:0.0054728938 723:0.0015358714 724:0.0012698545 754:0.0017662521 776:0.013172049 783:0.001004071 792:0.0010587887 826:0.0019526405 841:0.0017424908 849:0.0053229514 856:0.004390683 864:0.0035325042 866:0.0060714916 888:0.002539709 890:0.0018592128 900:0.0015925224 903:0.0032791179 924:0.013307379 930:0.01494521 954:0.0038857546 957:0.007472605 959:0.0024593384 967:0.077715091 983:0.0045183194 994:0.0022331923 999:0.0043175053 1005:0.0038857546 1025:0.0027755389 1027:0.0060714916 1028:0.0038095633 1052:0.0022992631 1054:0.015543018 1105:0.0035006797 1117:0.0029890421 1127:0.0088312607 1130:0.019926947 1132:0.0031086036 1142:0.0070650084 1168:0.0040059327 1196:0.0051128352 1207:0.013634226 1227:0.017865539 1234:0.25905031 1240:0.0026984406 1244:0.0023838985 1251:0.0022204311 1292:0.0092517966 1305:0.012142983 1310:0.021195024 1335:0.0039449283 1338:0.0097143864 1340:0.34971792 1362:0.0046258983 1403:0.0077715092 1417:0.0029437535 1422:0.013634226 1431:0.019428773 1440:0.036267042 1445:0.0032791179 1453:0.0051128352 1504:0.035325043 1521:0.0025733474 1541:0.010793762 1544:0.01494521 1585:0.0093632638 1593:0.0020451341 1631:0.040902682 1673:0.019428773 1678:0.01142869 1689:0.01494521 1693:0.0027755389 1705:0.013172049 1780:0.0070650084 1789:0.0084472923 1802:0.19428773 1826:0.0052510197 1841:0.0044663846 1855:0.0040476611 1874:0.0080953222 1919:0.0027558543 2008:0.026255099 2036:0.010793762 2060:0.0061192987 2068:0.0060714916 2096:0.0059324498 2107:0.018503593 2157:0.0028363173 2162:0.077715091 2216:0.086350098 2230:0.19428773 2242:0.0080953222 2244:0.0040902682 2256:0.0044156304 2304:0.0044663846 2321:0.0088312607 2349:0.0047972277 2396:0.018503593 2419:0.014391684 2460:2.5014546 2488:0.003597921 2493:0.0059780842 2560:0.0080953222 2591:0.020451341 2611:0.013399154 2757:0.0039250045 2804:0.013172049 2860:0.0057996339 2880:0.0046258983 2887:0.0037007187 2910:0.0040476611 2912:0.0064762575 2946:0.011102156 2969:0.0057143448 3066:0.012142983 3084:0.0039250045 3093:0.017662521 3101:0.021195024 3112:0.010502039 3154:0.0049186768 3178:0.064762577 3186:0.010502039 3224:0.012952515 3389:0.017270021 3463:0.055510778 3489:0.0086350106 3498:0.013399154 3513:0.024285967 3528:0.0076191267 3533:0.53035301 3537:0.048571933 3618:0.0035649124 3623:0.020451341 3645:0.038857546 3705:0.12952515 3759:0.12952515 3778:0.0060714916 3795:0.021587525 3854:0.019428773 3934:0.015543018 3957:0.0084472923 3967:0.052308235 4059:0.12952515 4064:0.050683755 4112:0.016894585 4154:0.021587525 4180:0.048571933 4266:0.038857546 4291:0.016190644 4320:0.032381289 4724:0.012534692 4821:0.016894585 4891:0.017662521 4902:0.011102156 4933:0.017662521 4962:0.032381289 4984:0.048571933 5028:0.23314528 5101:0.0073316125 5174:0.0073316125 5303:0.05181006 5347:0.097143866 5403:0.032381289 5407:0.035325043 5426:0.018503593 5432:0.013399154 5445:0.043175049 5545:0.014391684 5584:0.012952515 5593:0.02989042 5619:0.043175049 5655:0.055510778 5786:0.022204312 5798:0.032381289 5875:0.012740179 5884:0.013877694 5953:0.013634226 6242:0.035325043 6316:0.053968813 6709:0.032381289 6754:0.017662521 6764:0.033789169 6782:0.031086037 6938:0.013399154 6967:0.01142869 7240:0.77715093 7294:0.024285967 7339:0.048571933 7358:0.01494521 7460:0.021587525 7526:0.022857379 7643:0.035325043 7719:0.0088312607 7775:0.043175049 8072:0.016894585 8209:0.02989042 8243:0.011775014 8252:0.01142869 8511:0.064762577 8605:0.021587525 8684:0.097143866 8929:0.055510778 9076:0.013399154 9207:0.027755389 9279:0.01494521 9361:0.024285967 9440:0.032381289 9456:0.020451341 9491:0.035325043 9554:0.048571933 9610:0.015543018 9677:0.019428773 9912:0.010793762 10194:0.032381289 10209:0.077715091 10405:0.021587525 10482:0.032381289 10554:0.017662521 11371:0.055510778 11373:0.048571933 11412:0.15543018 11796:0.05181006 11941:0.097143866 11986:0.027755389 12043:0.077715091 12293:0.54400563 12498:0.052987564 12562:0.055510778 12596:0.061354019 12618:0.016190644 12705:0.25905031 12799:0.12952515 12915:0.077715091 13416:5.1625023 13433:0.097143866 13539:0.064762577 13683:0.018503593 13924:0.23314528 13961:0.064762577 14656:0.49959701 14828:0.064762577 14968:0.038857546 14969:0.097143866 14996:0.12952515 15623:0.077715091 15757:0.077715091 15852:0.064762577 16195:0.12952515 16264:0.027755389 16375:0.12952515 16441:0.077715091 16480:0.097143866 16680:0.19428773 16779:0.043175049 17184:0.097143866 17827:0.064762577 17879:0.38857546 17888:0.38857546 17899:0.043175049 19104:0.097143866 19134:0.097143866 19442:0.077715091 19746:0.097143866 19758:0.038857546 19772:0.035325043 19785:0.19428773 20158:0.097143866 20233:0.19428773 20272:0.19428773 20391:0.51810062 20545:0.077715091 20572:0.38857546 20727:0.097143866 20834:0.12952515 22424:0.077715091 22462:0.12952515 22569:0.12952515 22735:0.035325043 22786:0.29143161 22792:0.064762577 24298:0.25905031 24657:0.23314528 24914:1.7485895 24915:0.38857546 24916:0.12952515 24917:0.19428773 24918:0.38857546 24919:0.77715093 24920:0.38857546 24921:0.19428773 24922:1.5543019 24923:0.38857546 24924:0.38857546 24925:0.38857546 24926:0.38857546 24927:1.1657264 24928:0.38857546 24929:0.38857546 24930:0.19428773 24931:0.77715093 24932:0.097143866 24933:0.077715091 24934:0.38857546 24935:0.38857546 24936:0.077715091 24937:0.77715093 24938:1.1657264 24939:0.38857546 24940:0.097143866 24941:0.38857546 24942:0.12952515 24943:0.38857546 24944:0.38857546 24945:0.38857546 24946:1.5543019 24947:0.097143866 24948:0.38857546 24949:0.12952515 24950:0.38857546 24951:0.38857546 24952:1.1657264 24953:0.19428773 24954:2.7200282 24955:0.38857546 24956:0.77715093 24957:0.38857546 24958:0.38857546 24959:0.077715091 24960:0.77715093 24961:0.12952515 24962:0.38857546 24963:0.12952515 24964:0.38857546 24965:0.31086037 24966:0.38857546 24967:1.5543019 24968:0.38857546 24969:0.38857546 24970:0.77715093 24971:0.38857546 24972:0.38857546 24973:0.38857546 24974:0.38857546 24975:0.38857546 24976:0.19428773 24977:1.9428773 24978:0.38857546 24979:0.38857546 24980:0.19428773 24981:0.38857546 24982:0.097143866 24983:0.19428773 24984:0.38857546 24985:0.064762577 24986:0.38857546 24987:0.77715093 24988:0.38857546 24989:0.12952515 24990:0.38857546 24991:0.38857546 24992:0.77715093 24993:0.38857546 24994:0.38857546 24995:0.38857546 24996:0.19428773 24997:0.38857546 24998:0.12952515 24999:0.19428773 25000:0.38857546 25001:0.38857546 25002:0.38857546 25003:0.58286321 25004:0.38857546 25005:0.38857546 25006:0.38857546 25007:0.38857546 25008:0.19428773 25009:0.38857546 25010:0.38857546 #
-0.00266669232680158711443207941727 2:0.0024519002 9:0.0045357449 11:0.036047235 12:0.019718736 13:0.0041093845 17:0.0018972228 20:0.0064612967 23:0.0018167042 28:0.048921246 30:0.011980713 32:0.0043903682 34:0.0026008764 37:0.007695477 38:0.0022093465 40:0.009363832 41:0.02412707 46:0.0065855524 47:0.0026964466 48:0.0065159379 54:0.0016039753 55:0.012634031 56:0.0014986815 57:0.0045059044 64:0.0022164965 67:0.0033166946 68:0.0010283745 73:0.0026964466 75:0.0015219944 79:0.005435694 87:0.057074789 88:0.0024460624 89:0.0037222689 90:0.080189526 92:0.0070366175 93:0.01113122 95:0.0094375629 98:0.0027505921 99:0.0033573403 100:0.0041341898 103:0.0048805042 107:0.0034731107 114:0.0032510955 115:0.044449467 120:0.022051623 121:0.01092238 124:0.0082683796 125:0.013697949 126:0.11414958 134:0.025460871 141:0.004703966 153:0.010871388 164:0.0052202549 167:0.001788244 172:0.0066280398 175:0.0019238692 182:0.0029521442 185:0.0024996258 186:0.0037839639 189:0.00089179358 190:0.0088155121 192:0.0012777938 194:0.0010906011 204:0.0029606519 208:0.0021673969 211:0.0097842496 212:0.0021812022 215:0.0013020864 225:0.0035122947 235:0.0038477385 237:0.0031855695 256:0.0022093465 261:0.0011227827 266:0.0026964466 270:0.013883056 271:0.0012636484 284:0.0013120641 285:0.0020691766 291:0.0011011213 293:0.0068833916 298:0.0095456094 302:0.0096464427 304:0.0062263403 309:0.0029649241 313:0.002977815 316:0.0048921248 317:0.0025180054 319:0.003373879 342:0.017122436 352:0.00081341743 355:0.0024287144 357:0.0023617153 358:0.0021138811 359:0.0030039363 361:0.0088564325 365:0.0079639237 367:0.0018662056 371:0.0033573403 373:0.13370508 404:0.002185843 405:0.0024402521 422:0.001703725 439:0.0017561474 440:0.0015708657 443:0.002634221 456:0.0015495417 470:0.0029021078 473:0.0028418982 474:0.0014760721 479:0.0017606618 480:0.0043347939 481:0.003559758 482:0.0014150774 483:0.0057393643 485:0.006392376 491:0.0028537393 492:0.0046069333 493:0.0025057225 494:0.00093565224 497:0.0022829915 499:0.0010668185 502:0.0018312766 503:0.0022046056 513:0.00094079319 517:0.0098193185 525:0.0088564325 526:0.085612178 531:0.010377234 535:0.0058538243 549:0.0044473861 552:0.001153026 561:0.0026141123 574:0.016503554 579:0.013589235 581:0.0011154682 586:0.0086042397 596:0.0029021078 609:0.0026546414 621:0.0024815125 623:0.015565851 627:0.0020505912 631:0.0036822443 647:0.0020383853 653:0.0082517769 673:0.0069415281 687:0.004734314 693:0.0052149552 722:0.0020383853 724:0.0011191135 754:0.0031131702 758:0.0064009107 759:0.0023781161 767:0.0053092828 783:0.0061941631 786:0.0045659831 792:0.0027993084 794:0.0014034784 797:0.0030575779 807:0.0021537656 809:0.003324745 811:0.010828419 815:0.0022382271 817:0.0041508935 821:0.0011227827 826:0.0060229674 838:0.019568499 839:0.0071842391 841:0.0023034667 849:0.0046910783 865:0.0057074786 889:0.017122436 900:0.0056139138 903:0.0014449314 904:0.0022603876 910:0.0050360109 924:0.0093821567 933:0.0021951841 937:0.0084904647 946:0.0032306483 949:0.012377664 959:0.0043347939 999:0.0076099718 1006:0.0031131702 1020:0.0015085847 1022:0.0041258885 1025:0.0048921248 1032:0.034244873 1052:0.0020263239 1054:0.041093849 1104:0.0030171694 1105:0.0030851236 1117:0.013171105 1156:0.020144043 1161:0.014889075 1164:0.0056139138 1196:0.013517713 1206:0.0046276855 1208:0.0060078725 1251:0.0058705495 1254:0.0019568498 1257:0.014889075 1266:0.0090118088 1271:0.010591198 1275:0.0079639237 1281:0.0057074786 1292:0.016307082 1304:0.008153541 1346:0.013697949 1375:0.0059042885 1400:0.037222687 1407:0.006747758 1422:0.0030039363 1444:0.010072022 1453:0.0045059044 1457:0.013697949 1479:0.024460623 1490:0.0076099718 1507:0.007872384 1514:0.0076099718 1521:0.0022678724 1576:0.0076099718 1590:0.0016002277 1630:0.042806089 1631:0.018023618 1662:0.0056139138 1696:0.005568272 1865:0.0025748024 1888:0.0018411222 2060:0.0026964466 2096:0.0026141123 2158:0.011046733 2219:0.011414957 2230:0.34244871 2261:0.0076099718 2304:0.003936192 2339:0.020144043 2343:0.0031131702 2363:0.014268697 2450:0.057074789 2470:0.012683286 2490:0.008153541 2492:0.007286143 2525:0.038049858 2540:0.0095124645 2552:0.0048921248 2590:0.026342209 2595:0.012230312 2774:0.026342209 2775:0.0090118088 2776:0.0027616832 2840:0.0053507611 2887:0.0065228329 3047:0.0092553711 3066:0.0053507611 3067:0.068489745 3083:0.036047235 3084:0.0069181561 3112:0.0092553711 3122:0.038049858 3151:0.0079639237 3167:0.017789545 3242:0.0061151558 3383:0.042806089 3406:0.020144043 3469:0.025366573 3501:0.010701522 3513:0.021403044 3557:0.007286143 3605:0.014889075 3606:0.005268442 3618:0.0031417315 3620:0.010377234 3639:0.022829914 3784:0.016307082 3803:0.022829914 3812:0.0067146807 3892:0.010701522 3923:0.034244873 3993:0.18263932 4046:0.014268697 4064:0.014889075 4132:0.062263403 4222:0.085612178 4229:0.073381871 4326:0.014889075 4391:0.0067146807 4431:0.038049858 4522:0.0087807365 4546:0.048921246 4678:0.0095124645 4741:0.11414958 4742:0.034244873 4921:0.11985705 4950:0.068489745 4958:0.057074789 5061:0.024460623 5270:0.0038914627 5425:0.005268442 5445:0.019024929 5462:0.17122436 5512:0.011808577 5593:0.013171105 5792:0.048921246 5837:0.0079639237 6089:0.023348777 6093:0.042806089 6114:0.057074789 6123:0.010072022 6639:0.093395106 6672:0.026342209 6799:0.032614164 6994:0.026342209 7075:0.042806089 7081:0.048921246 7082:0.019024929 7120:0.014268697 7122:0.14676374 7225:0.012230312 7264:0.011808577 7269:0.031131702 7348:0.021403044 7358:0.013171105 7441:0.011808577 7644:0.024460623 7854:0.11414958 8088:0.057074789 8298:0.0097842496 8557:0.057074789 8582:0.015565851 8718:0.028537394 9094:0.019024929 9434:1.2841827 9447:0.010701522 9487:0.34244871 9502:0.17122436 9725:0.042806089 9962:0.17122436 10326:0.34244871 10424:0.021403044 10694:0.21403046 11215:0.034244873 11295:0.013697949 11334:0.048921246 11359:0.11414958 11373:0.042806089 12165:0.024460623 12192:0.021403044 12331:0.085612178 12400:4.5007548 13054:0.085612178 13061:0.048921246 13402:0.057074789 13577:0.068489745 13834:0.038049858 13841:0.019024929 14033:0.12452681 14121:0.042806089 15109:0.042806089 15424:0.51367307 15433:0.11414958 15685:0.048921246 15914:0.076099716 16368:0.048921246 17286:0.11414958 17600:0.031131702 17780:0.068489745 18303:0.34244871 18622:0.17122436 18785:0.031131702 19006:0.085612178 19659:0.048921246 19792:0.038049858 20132:0.17122436 20415:0.17122436 21446:0.048921246 21798:0.17122436 22634:0.17122436 23746:0.17122436 23861:0.068489745 23966:0.17122436 24404:0.17122436 24933:0.068489745 25406:0.057074789 25491:0.11414958 26201:0.22829916 26721:0.068489745 26780:0.085612178 26829:0.17122436 27920:0.17122436 28498:0.17122436 29180:0.085612178 29375:0.45659831 29527:0.085612178 29528:0.34244871 29529:0.34244871 29530:0.34244871 29531:0.11414958 29532:0.34244871 29533:0.34244871 29534:0.34244871 29535:0.34244871 29536:0.34244871 29537:0.34244871 29538:0.11414958 29539:0.34244871 29540:0.34244871 29541:0.17122436 29542:0.34244871 29543:0.34244871 29544:0.085612178 29545:0.51367307 29546:0.34244871 29547:0.34244871 29548:0.34244871 29549:2.0546923 29550:0.34244871 29551:0.68489742 29552:0.34244871 29553:0.34244871 29554:0.34244871 29555:0.17122436 29556:0.34244871 29557:0.34244871 29558:0.34244871 29559:0.34244871 29560:0.34244871 29561:0.34244871 29562:0.34244871 29563:0.34244871 29564:0.68489742 29565:0.34244871 29566:0.17122436 29567:0.34244871 29568:0.34244871 29569:0.34244871 29570:0.34244871 29571:0.34244871 29572:0.34244871 29573:0.17122436 29574:0.34244871 29575:0.34244871 29576:0.34244871 29577:0.17122436 29578:0.17122436 29579:0.34244871 29580:0.34244871 29581:0.34244871 29582:2.0546923 29583:0.34244871 29584:0.34244871 29585:0.34244871 29586:0.34244871 29587:0.11414958 29588:0.34244871 29589:0.34244871 29590:0.34244871 29591:0.17122436 29592:0.34244871 29593:0.17122436 29594:0.68489742 29595:0.51367307 29596:0.34244871 29597:0.34244871 29598:33.902424 29599:0.17122436 29600:0.17122436 29601:0.34244871 29602:0.11414958 29603:0.17122436 29604:0.085612178 29605:0.34244871 29606:0.34244871 29607:0.17122436 29608:1.1985705 29609:0.34244871 29610:0.34244871 29611:0.68489742 29612:0.34244871 29613:0.34244871 29614:0.34244871 29615:0.34244871 29616:0.11414958 #
-0.00266669232680158711443207941727 2:0.0023016962 12:0.012957534 14:0.0028199144 17:0.0044524963 19:0.0033661805 23:0.0025581187 34:0.0089523364 40:0.01192956 41:0.00073061418 48:0.00067964109 51:0.0042298716 54:0.0037642885 55:0.006866355 56:0.00070343597 64:0.018726422 67:0.0015567567 68:0.00096537609 71:0.0094550075 74:0.0081042917 75:0.0028575133 78:0.0031516692 82:0.0015953858 84:0.0015681476 88:0.034443241 89:0.0023294946 90:0.023446966 93:0.013522649 95:0.016453201 100:0.0019404643 103:0.0007635873 107:0.00065206946 114:0.0040692436 115:0.035849515 120:0.017047664 121:0.012062673 124:0.0071150358 134:0.095007002 141:0.0017663201 149:0.016073512 154:0.010715675 160:0.010715675 164:0.016661568 167:0.0033573916 186:0.0017760787 189:0.00083716208 190:0.0038194484 191:0.0022480437 194:0.0040951623 204:0.0037057088 208:0.0020346218 211:0.0091848643 212:0.0040951623 220:0.0027712951 222:0.0054486482 225:0.0016485654 227:0.0091326777 231:0.0045924322 235:0.0012040084 236:0.0016570631 237:0.0037380261 239:0.010715675 250:0.0025312619 251:0.0073061418 255:0.0039687683 266:0.0025312619 284:0.0012316868 285:0.0038848368 288:0.0024415462 292:0.0035326402 304:0.008036756 308:0.0073061418 309:0.0027832922 317:0.0031516692 319:0.0015835973 324:0.0016830902 337:0.0097415224 347:0.0010303534 352:0.0007635873 355:0.0045598615 361:0.0013856476 367:0.0026278221 373:0.0064037899 384:0.0094550075 386:0.0016743242 404:0.0047878549 411:0.0012460087 419:0.0028961282 422:0.0095961271 427:0.016073512 434:0.004018378 436:0.0013339014 439:0.0016485654 440:0.0073731709 443:0.0024728479 444:0.0032147025 456:0.0014546165 467:0.0017959231 473:0.0026678029 474:0.0027712951 475:0.0053578373 479:0.009090418 481:0.0033416864 482:0.0039851684 485:0.0025717621 486:0.0022402108 492:0.0014415706 493:0.0062725903 494:0.0079050064 499:0.0050073247 500:0.0060654762 501:0.0041480032 503:0.012417305 504:0.0023724742 506:0.0016318286 513:0.0070652803 514:0.014612284 522:0.004403702 529:0.0073901205 531:0.021918425 541:0.0089297295 552:0.0010823914 581:0.0020942688 585:0.0086883847 598:0.0032147025 609:0.0024920173 616:0.0040692436 625:0.0081729721 627:0.00096248579 628:0.0060654762 649:0.0063033383 664:0.00452775 670:0.014612284 673:0.0021720962 677:0.0086883847 682:0.010370008 683:0.0063033383 685:0.0015835973 693:0.0016318286 700:0.0084597431 721:0.0014612284 722:0.0057405401 723:0.0050825337 725:0.0029492683 739:0.026789187 747:0.0046254713 749:0.0026458455 759:0.0044648647 770:0.0057405401 776:0.032691889 781:0.0041749384 783:0.0033226898 786:0.0042862701 787:0.0035718917 789:0.011906305 792:0.0070075258 794:0.0026350019 796:0.002009189 812:0.002747609 813:0.0017760787 815:0.0021011126 821:0.0021080016 826:0.0040385709 841:0.010090995 848:0.0042298716 853:0.0035326402 877:0.0066972966 884:0.019681852 888:0.0084044505 903:0.010851316 904:0.0010609579 907:0.03782003 918:0.0064943484 924:0.008807404 933:0.0020607067 937:0.0053135576 955:0.040183779 961:0.16073512 964:0.0032803086 975:0.017859459 978:0.0091848643 983:0.0037380261 987:0.0032147025 994:0.0018475301 1005:0.0032147025 1006:0.0029224567 1010:0.0034198961 1014:0.02571762 1022:0.0038731354 1028:0.0015758346 1035:0.010045945 1037:0.0031516692 1050:0.0017760787 1073:0.0021011126 1104:0.002832337 1105:0.0028961282 1123:0.0017471209 1145:0.0078407377 1173:0.0054952181 1227:0.0036950603 1235:0.0076540536 1240:0.0022324324 1244:0.0098610502 1247:0.027953934 1261:0.0054486482 1279:0.024728481 1295:0.097838767 1318:0.004403702 1319:0.040183779 1346:0.01285881 1347:0.10715675 1351:0.014612284 1397:0.029224567 1405:0.01148108 1417:0.0024353806 1445:0.0013564145 1453:0.0042298716 1455:0.021431349 1457:0.02571762 1472:0.10045945 1483:0.1285881 1517:0.0082428269 1523:0.0026135792 1545:0.0027014306 1550:0.0051027024 1563:0.01148108 1587:0.0047275038 1590:0.0030043947 1593:0.0016919486 1620:0.098913923 1621:0.049456961 1640:0.013394593 1647:0.032147024 1659:0.091848642 1689:0.01236424 1711:0.004403702 1714:0.1285881 1756:0.0056398287 1765:0.035718918 1814:0.0093179783 1816:0.0095486213 1854:0.045924321 1878:0.0068397922 1907:0.0051027024 1911:0.0040436508 1941:0.0016830902 1943:0.0068397922 1976:0.0089297295 1982:0.017859459 1987:0.0051027024 1994:0.0041749384 2096:0.0049079428 2115:0.0034198961 2127:0.020091889 2130:0.040183779 2157:0.0023464982 2186:0.036658887 2201:0.014612284 2233:0.0026789187 2256:0.0036530709 2261:0.0071437834 2282:0.010540008 2307:0.045924321 2319:0.017859459 2343:0.0087673701 2363:0.0066972966 2383:0.016919486 2392:0.010259689 2434:0.014612284 2471:0.0068397922 2493:0.0049456959 2526:0.01285881 2556:0.032147024 2574:0.0084597431 2611:0.011085181 2690:0.0061232429 2712:0.0089297295 2753:0.020091889 2776:0.0025925019 2795:0.015308107 2840:0.015068918 2873:0.026789187 2880:0.0038270268 2887:0.0061232429 2907:0.035718918 2910:0.0033486483 2913:0.0069884835 2940:0.0091848643 3046:0.064294048 3112:0.0086883847 3134:0.040183779 3186:0.0086883847 3239:0.029224567 3249:0.016073512 3318:0.080367558 3364:0.0082428269 3389:0.014287567 3533:0.0043441923 3618:0.0058985366 3620:0.0097415224 3719:0.0074760523 3745:0.080367558 3757:0.032147024 3778:0.0050229724 3803:0.021431349 3805:0.032147024 3832:0.0051850039 3921:0.042862698 3939:0.0069884835 3967:0.0061821202 3968:0.0051027024 3976:0.040183779 4018:0.013679584 4137:0.017859459 4155:0.011085181 4176:0.021431349 4338:2.411027 4346:0.013394593 4382:0.013976967 4456:0.029224567 4522:0.0082428269 4607:0.020740015 4621:0.080367558 4625:0.045924321 4692:0.015308107 4696:0.080367558 4819:0.021431349 4891:0.029224567 4919:0.029224567 4933:0.0073061418 5011:0.045924321 5062:0.032147024 5144:0.020091889 5193:0.040183779 5197:0.029224567 5213:0.0091848643 5256:0.032147024 5267:0.032147024 5388:0.045924321 5396:0.17859457 5434:0.0041749384 5580:0.0074760523 5584:0.010715675 5758:0.018369729 5776:0.013976967 5786:0.0091848643 5913:0.018910015 5928:0.024728481 5979:0.045924321 6296:0.040183779 6371:0.013394593 6376:0.017859459 6419:0.040183779 6445:0.02296216 6457:0.011906305 6736:0.064294048 6962:0.053578373 6972:0.10715675 7042:0.080367558 7168:0.01236424 7239:3.2147024 7368:0.022170361 7375:0.045924321 7441:0.011085181 7488:0.10715675 7549:0.053578373 7829:0.040183779 7981:0.011085181 8005:0.0063033383 8050:0.053578373 8072:0.013976967 8197:0.0069884835 8230:0.035718918 8243:0.0097415224 8291:0.080367558 8318:0.01236424 8353:0.10715675 8382:0.019483045 8424:0.042862698 8450:0.080367558 8462:0.064294048 8463:0.01236424 8475:0.013976967 8515:0.010370008 8534:0.11572929 8540:0.026789187 8592:0.026789187 8606:0.080367558 8829:0.010045945 8839:0.16073512 8894:0.020091889 8958:0.16073512 8984:0.02296216 9150:0.16073512 9168:0.045924321 9423:0.016919486 9436:0.48220536 9818:0.045924321 9824:0.014612284 9889:0.049456961 10051:0.064294048 10405:0.017859459 10582:0.15068918 10608:0.040183779 10634:0.058449134 10675:0.064294048 10694:0.040183779 10710:0.053578373 10740:0.16073512 10754:0.091848642 10813:0.035718918 10963:0.011085181 11204:0.16073512 11211:0.16073512 11251:0.16073512 11314:0.018910015 12209:0.040183779 12279:0.024728481 12408:0.1285881 12427:0.016919486 12464:0.064294048 12627:0.080367558 12643:0.32147023 12687:0.16073512 12732:0.064294048 12816:0.03782003 12861:0.16073512 13161:0.02296216 13915:0.016919486 14129:0.011085181 14219:0.16073512 14463:0.053578373 14604:0.021431349 14673:0.032147024 14798:0.10715675 15642:0.080367558 15761:0.053578373 15871:0.080367558 16599:0.064294048 16818:0.064294048 16826:0.053578373 17136:0.053578373 17788:2.411027 18165:0.24110268 18211:0.32147023 18491:0.10715675 19127:0.16073512 19563:0.080367558 19772:0.029224567 19775:0.36739457 19831:0.064294048 20105:0.080367558 20303:0.064294048 20645:0.064294048 20728:0.053578373 21031:0.19288215 21193:0.16073512 21237:0.064294048 21566:0.040183779 22104:0.045924321 22582:0.080367558 22647:0.10715675 22663:0.053578373 22845:0.080367558 23725:0.064294048 23904:0.064294048 24194:0.10715675 24270:0.16073512 24431:0.32147023 24553:0.1285881 24998:0.10715675 25041:0.032147024 25406:0.053578373 25428:0.064294048 25695:0.16073512 26014:0.32147023 26343:0.045924321 26922:0.080367558 27108:0.16073512 27124:0.16073512 27564:0.080367558 27834:0.080367558 27869:0.16073512 28011:0.080367558 28189:0.053578373 28191:0.10715675 28480:0.10715675 29011:0.080367558 29046:0.040183779 29309:0.16073512 29482:0.16073512 29541:0.16073512 30095:0.10715675 30551:0.16073512 31026:0.16073512 32569:0.16073512 34395:0.19288215 34509:0.16073512 35416:0.10715675 35931:0.080367558 37456:0.16073512 37612:0.48220536 38815:0.32147023 38816:0.32147023 38817:0.32147023 38818:0.32147023 38819:0.32147023 38820:0.32147023 38821:0.32147023 38822:0.32147023 38823:0.32147023 38824:0.64294046 38825:0.32147023 38826:0.16073512 38827:0.32147023 38828:0.16073512 38829:0.64294046 38830:0.32147023 38831:0.32147023 38832:0.16073512 38833:0.32147023 38834:0.16073512 38835:0.32147023 38836:0.32147023 38837:0.32147023 38838:0.32147023 38839:0.48220536 38840:0.64294046 38841:0.32147023 38842:0.64294046 38843:0.32147023 38844:0.32147023 38845:0.32147023 38846:0.64294046 38847:0.16073512 38848:0.32147023 38849:0.32147023 38850:1.6073512 38851:0.32147023 38852:0.32147023 38853:0.32147023 38854:0.32147023 38855:0.32147023 38856:0.96441072 38857:0.64294046 38858:0.96441072 38859:0.64294046 38860:0.96441072 38861:0.64294046 38862:0.16073512 38863:0.32147023 38864:0.16073512 38865:0.64294046 38866:0.32147023 38867:0.32147023 38868:0.16073512 38869:0.32147023 38870:0.32147023 38871:0.64294046 38872:0.16073512 38873:0.32147023 38874:0.32147023 38875:0.32147023 38876:0.32147023 38877:0.32147023 38878:0.32147023 38879:0.16073512 38880:4.8220539 38881:0.32147023 38882:0.32147023 38883:0.32147023 38884:0.32147023 38885:0.32147023 38886:0.32147023 38887:0.16073512 38888:0.32147023 38889:0.32147023 38890:0.10715675 38891:0.32147023 38892:0.32147023 38893:0.16073512 38894:0.32147023 38895:0.32147023 38896:0.32147023 38897:0.32147023 38898:0.64294046 38899:0.64294046 38900:0.32147023 38901:0.32147023 38902:0.32147023 38903:0.32147023 38904:0.32147023 38905:0.32147023 38906:0.32147023 38907:0.16073512 38908:0.32147023 38909:0.16073512 38910:4.8220539 38911:0.32147023 38912:0.32147023 38913:0.32147023 38914:0.32147023 38915:0.16073512 38916:0.32147023 38917:0.32147023 38918:0.32147023 38919:0.32147023 38920:0.32147023 38921:0.32147023 38922:0.32147023 38923:0.32147023 38924:0.32147023 38925:0.64294046 38926:0.32147023 38927:0.96441072 #
-0.00266669232680158711443207941727 2:0.00097990746 12:0.022065785 13:0.0016423248 14:0.0012005299 15:0.037325565 17:0.0022746881 23:0.0065344493 30:0.0059851492 34:0.0031183383 37:0.0092265448 38:0.0061807926 40:0.012830663 41:0.018662782 46:0.0039478964 48:0.0052082185 54:0.0019230971 55:0.0039862255 58:0.0091240276 64:0.0013287418 66:0.0035702714 67:0.0019882869 68:0.0012329767 75:0.0018248054 79:0.0039102975 82:0.0020376239 88:0.0029327229 90:0.0078806374 93:0.0054953508 95:0.0048493845 98:0.0032978412 99:0.0053670746 100:0.0016522383 103:0.0029257569 107:0.0049969316 114:0.0025986154 115:0.039031487 116:0.0016622721 120:0.010886624 121:0.0084735332 124:0.02065298 134:0.015263243 141:0.0067678224 153:0.010861937 164:0.001251772 165:0.021697382 172:0.0026489112 173:0.0093313912 177:0.0044148518 183:0.0025661327 186:0.0034026068 189:0.0021384438 190:0.0073172892 192:0.0015320195 204:0.0011832312 209:0.0028315946 215:0.0078057265 222:0.0034795019 225:0.0010527724 228:0.002443936 230:0.0074992003 235:0.0076887868 236:0.002116398 237:0.00095484004 238:0.0022937499 246:0.0036550257 250:0.0016164616 256:0.0092711886 261:0.001346168 264:0.002319668 266:0.0016164616 268:0.0038734078 270:0.0069354936 271:0.0060602394 288:0.0020788922 291:0.0026403938 292:0.0090237632 297:0.0061280779 304:0.0046656956 312:0.0049467618 315:0.0021839426 317:0.002012653 324:0.0021496399 325:0.015724387 347:0.0013159654 352:0.015604037 357:0.014157973 359:0.0036015897 361:0.019467212 367:0.00111875 371:0.002012653 378:0.0023733019 383:0.0342151 397:0.0036989299 403:0.0095484005 404:0.0026207312 405:0.0029257569 436:0.0017036565 441:0.010804769 456:0.0018578336 475:0.0034215101 479:0.0021109574 481:0.0051215952 485:0.0032846497 490:0.010527723 491:0.0034215101 492:0.0036823428 493:0.0010014176 497:0.002737208 499:0.0012790692 500:0.0012911359 501:0.0026489112 502:0.0065868646 503:0.0026432266 506:0.0020841686 516:0.20529062 517:0.0029432345 531:0.0093313912 549:0.0071096313 552:0.0013824283 561:0.0031342078 567:0.0050689038 581:0.0026747962 586:0.0020632222 596:0.0052192528 597:0.0048878719 609:0.0031828003 614:0.0078205951 627:0.0024585703 665:0.0059504523 693:0.0020841686 721:0.0037325565 724:0.0053670746 727:0.0028512585 749:0.0016896346 753:0.0072031794 759:0.0028512585 783:0.0031828003 792:0.00111875 797:0.010997712 811:0.0016228507 813:0.0022684045 817:0.004976742 821:0.001346168 826:0.0020632222 839:0.0028711974 841:0.005523514 856:0.032475352 857:0.031583171 866:0.0064153317 903:0.0017324102 910:0.0060379594 913:0.017851358 933:0.0026319309 968:0.037325565 986:0.029327231 1020:0.0036174557 1078:0.019551488 1104:0.0036174557 1117:0.0031583172 1132:0.0032846497 1135:0.0043219076 1167:0.0093313912 1189:0.0092265448 1199:0.022810068 1212:0.0067308396 1248:0.0059504523 1271:0.0042327959 1316:0.0087357704 1335:0.0041683372 1336:0.0054023843 1350:0.0045118816 1392:0.0069590039 1407:0.006067703 1414:0.008553775 1426:0.0031104637 1506:0.007465113 1552:0.0034795019 1562:0.011405034 1576:0.0091240276 1590:0.0038372078 1693:0.0029327229 1774:0.0076033561 1777:0.0040651606 1831:0.0089256791 1855:0.0042768875 1889:0.0038016781 1895:0.0060379594 1907:0.0065171621 1928:0.0049467618 1938:0.026489111 1941:0.0021496399 1950:0.0095484005 1951:0.025661327 1985:0.0092265448 2010:0.019551488 2112:0.011405034 2165:0.0052638617 2169:0.0036334621 2495:0.0080506122 2501:0.019551488 2518:0.024151837 2562:0.010948832 2595:0.014663615 2681:0.011900905 2688:0.011248801 2704:0.012075919 2725:0.021609537 2776:0.0099334167 2780:0.0036015897 2793:0.0056244005 2809:0.0039862255 2880:0.0048878719 3014:0.0083792089 3087:0.027372081 3101:0.007465113 3109:0.0089256791 3162:0.082116246 3167:0.0053322236 3172:0.0093313912 3173:0.012075919 3242:0.0073318076 3281:0.041058123 3413:0.005702517 3432:0.0052638617 3453:0.022810068 3472:0.0097757438 3483:0.029327231 3495:0.024151837 3509:0.0077468157 3518:0.061587185 3622:0.027372081 3625:0.0066222777 3704:0.027372081 3778:0.03849199 3799:0.0083792089 3923:0.041058123 4116:0.051322654 4155:0.014157973 4280:0.025661327 4298:0.019551488 4333:0.051322654 4360:0.023461783 4383:0.025661327 4502:0.051322654 4583:0.041058123 4591:0.0035394933 4672:0.019096801 4693:0.041058123 4724:0.013244555 4821:0.017851358 4839:0.0043219076 5149:0.051322654 5160:0.0068430202 5431:0.012441855 5665:0.10264531 5714:0.010804769 5828:0.017851358 5832:0.0068430202 5884:0.014663615 5918:0.01109679 5955:0.01710755 6089:0.87715077 6156:0.016645184 6769:0.014157973 6792:0.082116246 6841:0.051322654 7137:2.5067065 7249:0.076983981 7272:0.010804769 7368:0.084947839 7381:0.058654461 7532:0.1368604 7839:0.01642325 8333:0.058654461 8499:0.018662782 8678:0.024151837 8855:0.045620136 8918:0.10264531 9121:0.0684302 9509:0.10264531 9589:0.1368604 9591:0.031583171 9711:0.01710755 9797:0.031583171 9806:0.020529062 10164:0.082116246 10303:0.031583171 10314:0.037325565 10446:0.1368604 10763:0.058654461 11123:0.029327231 11268:0.1368604 11414:0.039102975 12066:0.41058123 12354:0.082116246 12739:0.01710755 13093:2.5775378 13283:0.20529062 13834:0.045620136 14033:0.037325565 14289:0.051322654 14312:0.058654461 14673:0.041058123 14858:0.10264531 14899:0.1368604 15446:0.058654461 17098:0.058654461 17542:0.0684302 17693:0.20529062 17710:0.32846498 18667:0.20529062 19366:0.041058123 19442:8.5400896 19667:0.41058123 20096:0.058654461 20737:0.16423249 22703:0.1368604 23134:0.10264531 24212:0.1368604 25161:0.10264531 25449:0.0684302 27076:0.20529062 28880:0.1368604 30297:0.1368604 31317:0.2737208 33901:0.20529062 33972:0.1368604 35361:0.20529062 35862:0.20529062 36242:0.41058123 37587:0.41058123 38225:0.1368604 38251:0.20529062 38411:0.41058123 38731:0.20529062 39630:0.10264531 41220:0.20529062 41618:0.20529062 43492:0.61587185 43866:0.1368604 46524:0.20529062 47031:0.20529062 47759:0.20529062 48277:0.41058123 48278:0.41058123 48279:0.41058123 48280:0.41058123 48281:0.41058123 48282:0.41058123 48283:0.41058123 48284:0.41058123 48285:0.41058123 48286:0.41058123 48287:0.41058123 48288:0.41058123 48289:0.41058123 48290:0.41058123 48291:0.41058123 48292:0.41058123 48293:0.41058123 48294:0.82116246 48295:0.41058123 48296:0.82116246 48297:0.41058123 48298:0.41058123 48299:0.41058123 48300:0.41058123 48301:0.41058123 48302:0.41058123 48303:0.41058123 48304:0.41058123 48305:0.41058123 48306:1.2317437 48307:0.41058123 48308:0.41058123 48309:0.41058123 48310:0.41058123 48311:0.41058123 48312:1.2317437 48313:0.41058123 48314:0.41058123 48315:0.41058123 48316:0.41058123 48317:0.41058123 48318:0.41058123 48319:0.41058123 48320:0.41058123 48321:0.41058123 48322:0.41058123 48323:0.41058123 48324:0.41058123 48325:0.41058123 48326:0.41058123 48327:0.41058123 48328:0.41058123 48329:0.41058123 48330:0.41058123 48331:0.41058123 48332:0.41058123 48333:0.41058123 48334:0.41058123 48335:6.1587181 48336:0.41058123 48337:0.41058123 48338:0.41058123 48339:0.41058123 48340:0.41058123 48341:0.41058123 48342:0.41058123 48343:0.82116246 48344:0.41058123 48345:0.41058123 #
-0.00266669232680158711443207941727 12:0.0090171387 13:0.0080535933 14:0.0039247531 17:0.0037181871 38:0.0043298886 40:0.091756433 41:0.0015253017 48:0.0042566559 55:0.010425364 56:0.0029371236 67:0.0032500376 73:0.01585353 74:0.0018799237 75:0.0014914061 90:0.018034277 93:0.012832367 95:0.0039633824 98:0.0026953123 99:0.0021932444 100:0.0027007356 105:0.083891593 107:0.010890593 114:0.0042476756 115:0.046623483 116:0.029888503 120:0.022879526 121:0.012591609 124:0.0067518386 134:0.016216964 149:0.033556636 175:0.0037704087 186:0.0055618738 189:0.11010772 190:0.0039869272 197:0.0094304373 217:0.011878456 225:0.0017208533 230:0.0061290665 237:0.0062430953 262:0.024856769 270:0.0068020211 273:0.0038793802 285:0.010137958 288:0.0016990703 293:0.020235159 298:0.0023384418 304:0.0015253017 315:0.0071397102 316:0.0095876111 320:0.045967996 328:0.0036474606 347:0.0021510667 352:0.0015941396 361:0.0028928136 422:0.0016694845 439:0.0034417065 444:0.020133983 457:0.0039247531 473:0.0027847833 474:0.0028928136 479:0.0051758313 481:0.025115155 482:0.0027732758 493:0.0016369092 494:0.001833696 497:0.0067113275 499:0.0041815126 503:0.0043205973 513:0.0055313138 517:0.0048109875 529:0.0077141696 549:0.0058106733 561:0.005123151 623:0.030506035 627:0.0020093794 648:0.0045042466 683:0.026318932 708:0.010168678 723:0.0026526987 727:0.0069909664 754:0.0030506034 759:0.013981933 770:0.0089883851 776:0.022750264 781:0.0043580048 783:0.0017341932 796:0.0041945796 797:0.005992257 811:0.0026526987 826:0.0016862632 841:0.006019128 856:0.0037917106 910:0.0098695997 1014:0.02684531 1073:0.0043864888 1105:0.0060462411 1117:0.0051625599 1179:0.010824722 1221:0.0070645553 1226:0.009452574 1253:0.047938056 1263:0.016171874 1362:0.0079896757 1406:0.94278175 1455:0.35793748 1515:0.0033389691 1851:0.018642576 1855:0.0069909664 1888:0.014432963 1911:0.0084419213 1941:0.0035137841 2061:0.0099427076 2071:0.0093212882 2153:0.19175223 2283:0.015607739 2316:0.022371093 2349:0.0082855895 2392:0.0071397102 2436:0.011984514 2488:0.0062141921 2627:0.02684531 2679:0.0048987791 2742:0.11185546 2752:0.0093212882 2902:0.095876113 3025:0.017661389 3084:0.013558238 3109:0.014589842 3115:0.039478399 3218:0.0079896757 3348:0.011002176 3432:0.017208533 3491:0.041945796 3593:0.044742186 3648:0.055927731 3736:0.0097265616 3764:0.083891593 3771:0.12662882 4088:0.047938056 4285:0.16778319 4383:0.041945796 4522:0.017208533 4575:0.024856769 4715:0.020337356 5669:0.02684531 5703:0.52199215 5840:0.13422655 5872:0.22371092 5932:0.020972898 6470:0.047938056 7140:0.024856769 7291:0.13159466 7292:0.044742186 7294:0.020972898 7341:0.22371092 7365:0.13422655 7366:0.13422655 7393:0.055927731 7581:0.061012071 8404:0.12906399 8497:4.0939097 9805:0.041945796 10050:0.33556637 10224:0.83891594 10268:0.11185546 10945:0.67113274 10946:0.67113274 10947:0.33556637 10948:1.0066992 10949:0.22371092 10950:0.16778319 10951:0.67113274 10952:0.67113274 10953:0.67113274 10954:0.67113274 10955:1.3422655 10956:0.67113274 10957:0.11185546 10958:0.67113274 10959:0.22371092 10960:0.67113274 10961:0.33556637 10962:0.67113274 10963:0.023142509 10964:1.3422655 10965:1.3422655 10966:0.44742185 10967:0.33556637 10968:0.44742185 10969:0.67113274 10970:2.0133984 10971:0.67113274 10972:0.67113274 10973:0.33556637 10974:0.67113274 10975:0.26845309 10976:0.67113274 10977:0.67113274 10978:0.67113274 10979:0.67113274 10980:0.67113274 10981:4.0267968 10982:4.0267968 10983:0.67113274 10984:0.22371092 10985:0.33556637 10986:1.3422655 10987:0.67113274 10988:0.67113274 10989:0.22371092 10990:0.67113274 10991:0.67113274 10992:0.67113274 10993:6.040195 10994:0.67113274 10995:0.67113274 10996:0.67113274 10997:8.7247257 10998:0.67113274 10999:0.67113274 11000:0.67113274 11001:0.67113274 11002:0.67113274 11003:0.67113274 11004:0.095876113 11005:1.3422655 11006:0.67113274 11007:1.3422655 11008:0.16778319 11009:8.0535936 11010:0.22371092 #
-0.00266669232680158711443207941727 2:0.0028965545 12:0.022518257 13:0.0048546256 16:0.0023520472 17:0.002241286 23:0.0032192478 30:0.0070767137 34:0.0061450955 37:0.0090910587 38:0.0043500229 40:0.0071112681 41:0.0091943666 48:0.009408189 51:0.0053230543 54:0.010421718 55:0.0086409189 56:0.0026557033 64:0.0026184605 67:0.0048977253 68:0.0036446138 73:0.0031854499 74:0.0067991954 75:0.007192038 77:0.010535211 84:0.001973425 88:0.0028896581 90:0.0054354412 92:0.0027709049 93:0.015470445 95:0.016723612 98:0.0032494147 99:0.0039661974 100:0.0032559528 103:0.0028827942 107:0.0098471111 114:0.0025604565 115:0.054729171 116:0.0016378629 120:0.020687325 121:0.012903163 124:0.013837799 134:0.073691651 141:0.0033342207 153:0.0064214622 162:0.0034429969 164:0.0037001718 165:0.0065780836 167:0.0031688157 172:0.0052200276 173:0.018388733 177:0.023925126 186:0.0011175473 189:0.0042140847 190:0.0088120261 191:0.002829036 192:0.013585706 194:0.0025767651 197:0.0028422866 212:0.0012883826 213:0.0026441317 215:0.0046146628 220:0.0017437591 224:0.0043973057 225:0.0051865657 230:0.0055418098 231:0.0019264388 232:0.010373131 237:0.0065857326 238:0.0022600677 240:0.0063708997 246:0.0012004514 261:0.0026528009 270:0.008200381 271:0.0014928123 285:0.0036666356 288:0.0010241827 291:0.003902432 296:0.0066320021 298:0.0070479466 304:0.0036777465 308:0.022985917 313:0.0017589224 315:0.0064556189 317:0.0019830987 319:0.0019928676 320:0.0055418098 324:0.0042361477 325:0.0068859938 328:0.0021986528 329:0.0022228139 347:0.006483207 349:0.011669773 352:0.012492108 357:0.0027900147 361:0.012206314 367:0.0033069656 373:0.003223523 378:0.0046769031 380:0.017214984 396:0.0050254925 397:0.0036446138 404:0.007746743 405:0.0028827942 422:0.0050317431 431:0.014710986 440:0.0074229748 443:0.0015559697 459:0.007355493 461:0.0087946113 467:0.0045201355 473:0.0033572791 475:0.0033712678 479:0.0010399797 481:0.0067285178 484:0.018388733 485:0.0010788057 486:0.0028191786 492:0.0018141351 499:0.001260287 500:0.002544353 502:0.0021633804 503:0.011285789 506:0.0061606923 517:0.0058000307 520:0.0047594369 522:0.0055418098 525:0.0034875183 534:0.0056187795 535:0.0034577106 545:0.0082561662 549:0.0035026157 561:0.009264553 567:0.0049944706 568:0.0040054666 579:0.0032107311 581:0.0026355188 586:0.0020329254 596:0.0034284079 598:0.0020227607 614:0.0038528775 618:0.0036120727 621:0.0029315371 627:0.0060561695 647:0.0024080484 648:0.002715115 671:0.0054669208 682:0.013050069 683:0.0079323947 685:0.0019928676 687:0.0018642956 688:0.018388733 693:0.0041071284 723:0.0079951016 724:0.0026441317 727:0.0028093897 733:0.009408189 734:0.057793163 747:0.0058208941 754:0.0036777465 770:0.0018060363 783:0.0020907086 791:0.004086385 792:0.0022046438 793:0.0031854499 811:0.0015990203 815:0.010576527 817:0.007355493 821:0.0026528009 826:0.0040658507 841:0.00090706756 849:0.01108362 853:0.0044456278 855:0.022475118 856:0.0068568159 862:0.025284508 866:0.050569016 874:0.0050569018 876:0.1132746 897:0.01427831 900:0.003316001 903:0.001706971 904:0.0013351556 913:0.026383834 918:0.004086385 964:0.0041280831 1005:0.0040455214 1020:0.0017821679 1028:0.0019830987 1029:0.0089900475 1060:0.0043500229 1091:0.0049944706 1104:0.0017821679 1117:0.0031119394 1123:0.0065959585 1152:0.010113804 1189:0.0045455294 1205:0.011898592 1244:0.014891489 1247:0.0087946113 1248:0.0058630742 1254:0.0023117266 1292:0.0096321935 1316:0.0086074919 1325:0.0043973057 1350:0.0022228139 1362:0.0096321935 1375:0.013950073 1385:0.026970142 1407:0.0079714702 1414:0.042140845 1445:0.001706971 1451:0.0084281694 1515:0.002012697 1523:0.0032890418 1536:0.0056979172 1575:0.0082561662 1608:0.0089900475 1643:0.015864789 1683:0.023797184 1694:0.0040054666 1722:0.007355493 1752:0.050569016 1780:0.007355493 1787:0.013050069 1808:0.018388733 1841:0.0023250123 1855:0.0042140847 1882:0.0062238788 1888:0.0021750114 1911:0.0076330588 1928:0.0097482437 1941:0.0042361477 1943:0.0043037459 1985:0.027273178 2014:0.010113804 2071:0.0056187795 2126:0.012642254 2130:0.10113803 2186:0.0035487029 2256:0.0045971833 2302:0.010113804 2337:0.021292217 2407:0.026970142 2412:0.029966824 2476:0.025284508 2488:0.011237559 2546:0.0072241453 2654:0.018816378 2679:0.0059058703 2688:0.0055418098 2699:0.022475118 2766:0.0087946113 2809:0.0039276904 2814:0.017214984 2880:0.014448291 2916:0.011558632 2917:0.0043500229 2955:0.012076183 2989:0.0082561662 3084:0.004086385 3101:0.02206648 3116:0.007355493 3138:0.036777467 3164:0.010933842 3173:0.011898592 3328:0.0072241453 3413:0.011237559 3453:0.044950236 3478:0.022475118 3495:0.011898592 3533:0.0054669208 3557:0.043037459 3585:0.0079323947 3602:0.018388733 3625:0.0065250346 3642:0.033712678 3736:0.011726148 3765:0.0079323947 3781:0.010373131 3846:0.020227607 3928:0.021292217 3957:0.0087946113 4056:0.0087946113 4147:0.015559698 4155:0.027900146 4571:0.089900471 4672:0.037632756 4724:0.013050069 4734:0.080910429 4764:0.028896581 5201:0.011237559 5216:0.040455215 5303:0.053940285 5431:0.012259156 5438:0.033712678 5444:0.011898592 5633:0.010113804 5859:0.020227607 5884:0.014448291 5919:0.012259156 5978:0.016856339 6156:0.0054669208 6211:0.080910429 6260:0.026970142 6303:0.13485071 6324:0.16182086 6344:0.20227607 6425:0.0059492961 6526:0.019264387 6722:0.16856338 6832:0.067425355 7145:0.10113803 7162:0.050569016 7173:0.013950073 7180:0.018388733 7291:0.0079323947 7305:0.044950236 7332:0.021292217 7338:0.014194812 7744:0.022475118 7756:0.067425355 7796:0.028896581 7956:0.044950236 8284:0.026970142 9028:0.040455215 9781:0.32364172 9797:0.06223879 9889:0.12447758 10269:0.018388733 10357:0.067425355 10513:0.031119395 11062:0.057793163 11102:0.20227607 11262:0.10113803 12163:0.031119395 12642:0.40455213 12718:0.13485071 13074:0.20227607 13683:0.019264387 13986:0.057793163 14008:0.050569016 14078:0.057793163 14309:0.067425355 14454:0.050569016 14490:0.20227607 14739:0.067425355 14955:0.026970142 15011:0.10113803 15200:0.050569016 15766:1.699119 15985:0.044950236 16182:0.13485071 16268:0.057793163 17347:5.5828195 17433:0.20227607 18330:0.067425355 18559:0.057793163 18752:0.067425355 19497:0.20227607 19799:0.20227607 20207:0.028896581 20560:0.044950236 21415:0.13485071 21822:0.24273127 22789:0.15170705 22933:0.13485071 23149:0.10113803 23430:0.067425355 23475:0.10113803 24738:2.1576114 25209:0.20227607 25277:0.20227607 26121:0.13485071 30944:0.20227607 31578:0.26970142 31636:0.10113803 31790:0.40455213 32926:0.26970142 33884:0.20227607 34921:0.20227607 34929:0.10113803 35146:0.13485071 35858:0.13485071 35882:0.40455213 36255:0.13485071 36310:0.20227607 37567:0.20227607 39604:0.20227607 39606:7.0796623 39625:0.20227607 39662:0.13485071 40315:0.10113803 40562:0.20227607 41018:0.20227607 42626:0.40455213 42641:0.20227607 43895:0.40455213 43896:0.40455213 43897:0.40455213 43898:0.40455213 43899:0.40455213 43900:0.40455213 43901:0.40455213 43902:0.80910426 43903:0.40455213 43904:1.6182085 43905:1.2136564 43906:0.80910426 43907:0.40455213 43908:0.40455213 43909:0.40455213 43910:0.40455213 43911:0.40455213 43912:0.40455213 43913:0.40455213 43914:0.80910426 43915:0.80910426 43916:0.40455213 43917:0.40455213 43918:0.40455213 43919:0.40455213 43920:0.40455213 43921:8.0910425 43922:0.40455213 43923:0.40455213 43924:1.6182085 43925:0.40455213 43926:0.40455213 43927:0.40455213 43928:0.40455213 43929:0.40455213 43930:0.40455213 43931:0.40455213 43932:0.40455213 43933:0.40455213 43934:0.20227607 43935:0.40455213 43936:0.80910426 43937:0.40455213 43938:0.40455213 43939:0.40455213 43940:0.80910426 43941:0.40455213 43942:0.40455213 43943:0.40455213 43944:0.40455213 43945:0.20227607 43946:0.40455213 43947:0.40455213 43948:0.80910426 43949:0.40455213 43950:0.40455213 #
0.00266669232680158711443207941727 2:0.0019453192 11:0.021449704 12:0.0078223487 14:0.0011916503 17:0.0011289318 20:0.023068549 23:0.002162039 24:0.010449856 30:0.001188176 32:0.0052249278 34:0.0030952739 38:0.0008764395 40:0.013531747 41:0.0046311859 47:0.0032090109 48:0.00086161605 54:0.0066810553 55:0.0039567417 56:0.001783564 67:0.0019735806 68:0.011014713 74:0.0011415809 75:0.0036226166 78:0.0019977666 79:0.0025875834 82:0.010112763 89:0.0014766101 90:0.012515758 91:0.010449856 93:0.027273525 95:0.009627033 100:0.0032800352 103:0.011616467 107:0.003306648 108:0.0039955331 114:0.0012896974 115:0.049918599 116:0.0016499773 119:0.0030642434 120:0.019296609 121:0.0084108599 124:0.021320229 134:0.037875872 145:0.043665469 154:0.013584812 162:0.0017342314 164:0.006212567 167:0.0042563383 177:0.0021910989 185:0.0029747766 189:0.0063678809 190:0.0048421114 192:0.0030413759 197:0.012407674 198:0.0083172321 199:0.0047946395 204:0.0011744795 208:0.0025793947 213:0.0026636887 220:0.0035133136 227:0.002315593 231:0.0058220625 237:0.0018955553 240:0.0064180219 246:0.0012093305 247:0.0032866483 249:0.018113084 251:0.0092623718 256:0.0013146593 261:0.0013362111 264:0.0023025107 279:0.0031592587 284:0.0015614727 285:0.0049250075 288:0.0010317579 293:0.0040959236 298:0.0028400305 304:0.0046311859 308:0.0046311859 309:0.0017642614 317:0.0059932997 319:0.0020076078 324:0.0042674802 329:0.0022392548 343:0.0066810553 347:0.0013062319 357:0.0056213019 361:0.0017566568 362:0.0063185175 371:0.0019977666 373:0.0032473656 384:0.0034247427 386:0.0021226269 399:0.0062699136 402:0.0024258594 404:0.0052026943 422:0.004055168 424:0.0025313315 434:0.0050943047 436:0.0016910555 440:0.0018694696 443:0.0031349568 456:0.0018440922 457:0.0047666011 458:0.0037735591 462:0.13584812 467:0.0022767843 468:0.0048517189 470:0.003453766 474:0.0052699703 479:0.0052383598 481:0.0050837137 485:0.00217357 489:0.050943047 492:0.0036551065 493:0.0049700532 494:0.0022270184 496:0.0037049488 500:0.0012815861 503:0.0026236763 513:0.019033667 522:0.0055827997 552:0.0013722033 570:0.0062699136 581:0.0013275062 586:0.0040959236 618:0.0036387891 626:0.012165504 627:0.0036605783 628:0.0076895165 636:0.0037049488 644:0.006907532 648:0.0027351971 658:0.0046311859 673:0.0055073565 685:0.0040152157 687:0.0037561695 696:0.0022895751 708:0.006174915 722:0.0024258594 723:0.0016108473 726:0.003808826 727:0.0042452537 729:0.016981015 747:0.0029319739 749:0.005031412 767:0.0063185175 768:0.0055827997 770:0.0018193945 783:0.0021061725 787:0.0090565421 791:0.0041166097 794:0.0016702638 809:0.0039567417 811:0.0032216946 813:0.0022516265 814:0.0066810553 821:0.0013362111 826:0.0051199044 841:0.0045688832 848:0.0053624259 856:0.0046050213 884:0.0083172321 888:0.0026636887 889:0.020377219 890:0.0019499731 891:0.050943047 900:0.0016702638 904:0.0040350929 924:0.0027913998 959:0.0051587895 965:0.025471523 987:0.0040754438 996:0.061131656 1010:0.0043355785 1020:0.0035906993 1025:0.0058220625 1035:0.025471523 1050:0.0022516265 1052:0.0024115052 1065:0.031349566 1078:0.019406876 1097:0.020377219 1104:0.0017953496 1107:0.037049487 1112:5.7056212 1117:0.043889396 1150:0.0094777765 1156:0.011986599 1202:0.010188609 1227:0.004684418 1240:0.0028301694 1281:0.0067924061 1283:0.0083172321 1304:0.0097034378 1305:0.025471523 1332:0.006174915 1336:0.0053624259 1338:0.010188609 1342:0.020377219 1363:0.050943047 1386:0.058220625 1397:0.037049487 1403:0.005433925 1407:0.010038039 1422:0.014299802 1426:0.0030874575 1440:0.097810648 1445:0.0017195966 1453:0.0053624259 1458:0.015674783 1483:0.081508875 1487:0.0097034378 1514:0.0090565421 1515:0.0060827518 1523:0.013253476 1537:0.081508875 1585:0.0049101734 1590:0.003808826 1593:0.010724852 1608:0.0090565421 1609:0.014555156 1620:0.015674783 1643:0.0079910662 1750:0.022641355 1801:0.0042452537 1831:0.026578981 1864:0.013146593 1888:0.0021910989 1910:0.014053254 1911:0.0025631723 1912:0.0067924061 1976:0.011320678 1989:0.014555156 2002:0.042899407 2012:0.013146593 2026:0.0086711571 2044:0.02469966 2061:0.0090565421 2107:0.019406876 2126:0.012735762 2127:0.025471523 2157:0.0029747766 2158:0.013146593 2250:0.0057400619 2256:0.0092623718 2282:0.0066810553 2322:0.025471523 2349:0.005031412 2446:0.050943047 2460:0.025471523 2482:0.029110312 2541:0.016634464 2562:0.005433925 2580:0.0072775781 2720:1.1411242 2730:0.025471523 2801:0.10188609 2804:0.006907532 2811:0.016981015 2820:0.058220625 2827:0.025471523 2858:0.012735762 2876:0.031349566 2887:0.0038813751 2913:0.0088596605 2989:0.0083172321 3008:0.025471523 3025:0.010724852 3047:0.0055073565 3052:0.058220625 3062:0.87330937 3101:0.014819795 3167:0.005292784 3219:0.0059064403 3260:0.050943047 3268:0.011320678 3345:0.021449704 3355:0.06792406 3413:0.011320678 3463:0.087330937 3513:0.050943047 3533:0.0055073565 3565:0.023973199 3577:0.030758066 3581:0.050943047 3645:0.040754437 3658:0.019406876 3662:0.0029966498 3723:0.10188609 3743:0.014053254 3778:0.044575166 3878:0.010724852 3904:0.018113084 4143:0.0099401064 4183:0.0076895165 4265:0.20377219 4269:0.010188609 4308:0.029110312 4360:0.20959425 4371:0.050943047 4430:0.06792406 4525:0.050943047 4631:0.03396203 4902:0.011644125 4961:0.17466187 4997:0.15282914 5030:0.03396203 5201:0.011320678 5238:0.0075471182 5303:0.027169624 5352:0.06792406 5379:0.022641355 5401:0.022641355 5432:0.014053254 5434:0.005292784 5479:0.029110312 5520:0.018524744 5560:0.027169624 5563:0.019406876 5585:0.032603551 5716:0.037049487 5786:0.011644125 5875:0.0066810553 5953:0.0071499012 6130:0.050943047 6217:0.027169624 6596:0.28528106 6677:0.04528271 6856:0.10188609 6872:0.027169624 6967:0.17979899 7056:0.04528271 7086:0.0090565421 7188:0.022641355 7264:0.014053254 7282:0.090565421 7305:0.22641355 7306:0.018524744 7452:0.03396203 7625:0.014053254 8112:0.013584812 8328:0.058220625 8404:0.015674783 8520:0.06792406 8561:0.03396203 8694:0.081508875 8829:0.025471523 9084:0.16301775 9184:0.13584812 9186:0.018524744 9207:0.058220625 9247:0.06792406 9619:0.04528271 9659:0.031349566 9683:0.058220625 10038:0.016981015 10105:0.10188609 10209:1.1411242 10256:0.029110312 10685:0.029110312 11053:0.10188609 11415:0.040754437 12470:0.029110312 12474:0.24452662 12961:0.13584812 13416:0.058220625 13427:0.06792406 13682:0.13584812 13841:0.49810979 14129:0.014053254 14367:0.050943047 15091:0.013584812 15125:0.025471523 15192:0.10188609 15281:0.20377219 15673:0.081508875 15940:0.10188609 16199:0.20377219 16674:0.13584812 16691:0.050943047 17091:0.20377219 17574:0.10188609 17724:0.06792406 18387:0.03396203 19507:0.081508875 20132:0.10188609 20285:0.13584812 20450:0.10188609 21955:0.058220625 23138:0.029110312 23431:0.040754437 24784:0.20377219 24916:0.13584812 25116:0.081508875 25317:0.040754437 26626:0.20377219 27600:0.20377219 27663:0.17466187 29090:0.20377219 29107:0.40754437 29497:0.13584812 32099:0.10188609 33506:0.20377219 33508:1.0188609 33574:0.20377219 33748:1.9018737 34594:0.10188609 34844:4.6867604 35372:0.13584812 35451:0.40754437 36050:0.13584812 36366:0.13584812 37223:0.20377219 37880:0.20377219 38170:0.20377219 39830:0.20377219 40990:0.20377219 41277:0.13584812 41281:0.081508875 41585:0.20377219 41859:1.6301775 41860:0.20377219 42935:0.20377219 43434:0.20377219 44044:0.20377219 44045:0.40754437 44046:0.40754437 44047:0.40754437 44048:0.40754437 44049:0.40754437 44050:0.40754437 44051:0.40754437 44052:0.40754437 44053:0.81508875 44054:0.40754437 44055:0.40754437 44056:0.40754437 44057:0.40754437 44058:0.40754437 44059:0.40754437 44060:0.40754437 44061:0.40754437 44062:0.40754437 44063:0.40754437 44064:0.40754437 44065:0.40754437 44066:0.40754437 44067:0.40754437 44068:0.40754437 44069:0.40754437 44070:0.40754437 44071:0.40754437 44072:1.6301775 44073:0.81508875 44074:0.40754437 44075:0.40754437 44076:0.40754437 44077:0.40754437 44078:0.40754437 44079:0.40754437 44080:0.40754437 44081:0.40754437 44082:0.40754437 44083:0.40754437 44084:0.81508875 44085:0.20377219 44086:0.40754437 44087:0.40754437 44088:0.40754437 44089:0.81508875 44090:0.40754437 44091:0.40754437 44092:0.40754437 44093:0.40754437 44094:0.40754437 44095:0.40754437 44096:0.40754437 44097:0.40754437 44098:0.40754437 44099:0.20377219 44100:0.40754437 44101:0.40754437 44102:0.40754437 44103:0.40754437 44104:1.2226331 44105:2.8528106 44106:0.40754437 44107:0.40754437 44108:0.40754437 44109:0.40754437 44110:1.2226331 44111:0.40754437 44112:0.40754437 44113:0.40754437 44114:0.40754437 44115:0.40754437 44116:0.40754437 44117:1.6301775 44118:0.40754437 44119:0.40754437 44120:0.40754437 44121:0.40754437 44122:0.40754437 44123:0.40754437 44124:0.40754437 44125:0.40754437 44126:0.40754437 44127:0.40754437 44128:0.40754437 44129:0.40754437 44130:0.40754437 44131:0.40754437 44132:0.40754437 44133:0.40754437 44134:0.40754437 44135:0.40754437 44136:0.40754437 44137:0.40754437 44138:0.40754437 44139:0.40754437 44140:0.40754437 44141:0.40754437 44142:0.40754437 44143:0.40754437 44144:0.40754437 44145:0.40754437 44146:0.40754437 44147:0.40754437 44148:0.40754437 #
0.00266669232680158711443207941727 12:0.0056656157 19:0.0051514586 23:0.0052197804 28:0.028112246 34:0.0024909584 38:0.0063479263 40:0.0019217355 41:0.0044724024 48:0.0041603744 54:0.0046085645 55:0.017194869 56:0.0064590499 64:0.003184235 67:0.0047647874 68:0.0029547405 75:0.0043730158 79:0.0062471656 82:0.0073245303 89:0.010694875 90:0.015108308 93:0.0075252661 95:0.050358549 99:0.0032154529 100:0.0039594709 103:0.067776553 107:0.0019957984 108:0.0096463589 115:0.048566859 116:0.0039835167 120:0.068949543 121:0.016614178 124:0.011878413 134:0.012802045 141:0.0027031004 175:0.0055276887 177:0.0052899388 186:0.0027180347 190:0.052606083 191:0.0068806196 227:0.01677151 237:0.004576412 247:0.0079349075 256:0.0031739632 263:0.010040088 273:0.011374896 281:0.012946429 284:0.0037698413 288:0.0049819169 297:0.0097903339 309:0.0042594313 313:0.0085559003 317:0.0048231794 329:0.0054062009 352:0.0046742451 358:0.012147266 361:0.0084821433 384:0.0041341535 404:0.023028115 405:0.0023371226 411:0.0038136765 422:0.066084757 441:0.025892857 456:0.0044521657 475:0.0081994049 479:0.0050587589 481:0.0020455895 483:0.0054968079 492:0.0044122357 493:0.0023998257 494:0.0026883294 499:0.003065198 503:0.010557174 510:0.017570153 531:0.0074540041 540:0.04685374 552:0.0033128909 567:0.012147266 615:0.012534122 631:0.03173963 644:0.016676756 647:0.0058567175 665:0.0071299174 667:0.015869815 721:0.01788961 722:0.0058567175 723:0.0038890457 727:0.0034164186 749:0.0040490888 792:0.0080430126 793:0.007747469 794:0.004032494 826:0.0049443645 864:0.0089448048 877:0.020498512 937:0.008131641 957:0.056765109 1000:0.03173963 1021:0.037843406 1050:0.010872139 1052:0.011644125 1130:0.050457876 1155:0.10357143 1164:0.016129976 1173:0.016819293 1240:0.013665674 1251:0.0056224489 1304:0.02342687 1316:0.020934651 1426:0.0074540041 1433:0.013478474 1445:0.0041515972 1512:0.3279762 1563:0.035140306 1590:0.0045977971 1606:0.0087073324 1777:0.009741867 1822:0.14056122 1851:0.027331349 1862:0.016676756 1888:0.0052899388 1911:0.0061882301 1918:0.10932539 1919:0.006978217 2026:0.020934651 2061:0.014576719 2192:0.022362012 2219:0.03279762 2244:0.010357142 2532:0.012614469 2533:0.0066481661 2552:0.014056123 2580:0.017570153 2668:0.14056122 2681:0.0071299174 3085:0.021865079 3181:0.012299107 3219:0.014259835 3242:0.017570153 3308:0.04919643 3328:0.035140306 3469:0.072883599 3539:0.13119048 3572:0.061495535 3633:0.061495535 3666:0.015373884 3679:0.14056122 3740:0.070280612 3745:0.24598214 3850:0.1639881 4306:0.14056122 4838:0.051785715 4885:0.14056122 5051:0.051785715 5070:0.057878152 5379:0.054662697 5425:0.015137362 5755:0.037843406 6156:0.013296332 6473:0.065595239 6709:0.081994049 6906:0.08944805 6963:0.028112246 6967:0.028939076 6982:0.49196428 7251:0.1639881 7332:0.10357143 7334:0.028939076 7359:0.19678572 7568:0.24598214 7737:0.070280612 7916:0.065595239 8252:0.028939076 8815:0.098392859 8860:0.081994049 9602:0.12299107 10088:0.3279762 10828:0.98392856 10829:0.98392856 10830:0.08944805 10831:0.98392856 10832:0.49196428 10833:0.98392856 10834:0.49196428 10835:0.98392856 10836:0.19678572 10837:0.39357144 10838:0.3279762 10839:0.19678572 10840:0.98392856 10841:0.98392856 10842:0.49196428 10843:0.3279762 10844:9.8392859 10845:0.49196428 10846:0.28112245 10847:0.98392856 10848:1.9678571 10849:0.49196428 10850:0.14056122 10851:0.98392856 10852:5.9035716 10853:0.49196428 10854:0.98392856 10855:0.98392856 10856:0.075686812 10857:0.98392856 10858:0.49196428 10859:0.49196428 10860:0.98392856 10861:0.19678572 10862:0.98392856 10863:0.19678572 10864:0.49196428 10865:0.98392856 10866:0.49196428 10867:7.8714285 10868:0.49196428 10869:1.9678571 10870:0.98392856 10871:0.98392856 10872:0.98392856 10873:0.19678572 10874:0.49196428 10875:0.98392856 10876:13.775 10877:1.9678571 10878:0.49196428 10879:0.98392856 10880:0.19678572 10881:0.98392856 10882:1.9678571 10883:0.49196428 10884:0.24598214 10885:0.12299107 10886:0.98392856 10887:0.12299107 10888:0.98392856 10889:0.3279762 #
0.00266669232680158711443207941727 18:0.49977323 23:0.064957269 34:0.030998593 40:0.023914931 55:0.02377562 57:0.16111112 93:0.046823878 103:0.029084191 115:0.067154177 153:0.19435626 183:0.076527774 338:0.32222223 367:0.033363611 1432:0.37104377 1468:0.13026005 1826:0.33093092 2780:0.10740741 4745:2.4488888 5189:1.2244444 5845:0.51018518 6978:0.48977777 7088:0.90699589 17610:9.1833334 18744:12.244445 18745:24.48889 18746:12.244445 18747:12.244445 18748:36.733334 #
0.00266669232680158711443207941727 2:0.007538422 9:0.0046484163 12:0.014819615 14:0.0010261855 16:0.0020404384 19:0.0018374629 22:0.0060509555 23:0.0027927486 28:0.010027298 34:0.0017769894 37:0.0039433194 38:0.0022642284 40:0.003427299 44:0.11698513 48:0.0059358208 54:0.0024657289 55:0.0088590691 56:0.0046077296 64:0.0034073342 66:0.0030517862 67:0.0016995419 68:0.0084313611 74:0.0029492052 75:0.0038995047 79:0.0011141442 84:0.0017119776 89:0.0012715776 90:0.0087570446 93:0.0187892 95:0.0089811422 99:0.0011469132 100:0.0021184431 103:0.00083362329 107:0.0021356314 114:0.0044424734 115:0.044270426 116:0.0028417443 120:0.015952518 121:0.0111937 124:0.017653693 125:0.0028076433 129:0.0081617534 130:0.0042799441 134:0.025441006 141:0.0019283264 162:0.010453991 164:0.0021399721 167:0.0064143287 172:0.0022642284 175:0.0039433194 177:0.0056605712 186:0.0029084703 189:0.0018278927 190:0.0020848836 191:0.0024542336 197:0.0057533677 204:0.0020227977 209:0.019363057 212:0.0044707698 213:0.0045876526 215:0.0026688625 225:0.0053993142 227:0.0019940648 230:0.0016025362 231:0.0016712162 236:0.0072361943 237:0.0040808767 240:0.013817143 246:0.0020828214 247:0.0028302856 250:0.0027634285 258:0.029246284 261:0.0011506735 284:0.0026893136 285:0.0042411531 288:0.00088849472 293:0.001763595 298:0.0024456824 304:0.0071786335 306:0.0054836785 309:0.0015192875 317:0.0034407394 320:0.0096152164 324:0.0018374629 325:0.0014934273 328:0.0019073663 331:0.035095543 339:0.0053175064 347:0.0033745712 351:0.01017262 354:0.0024542336 355:0.0024890455 358:0.0021663914 361:0.0015127389 367:0.0028688454 369:0.0037737142 371:0.0017203697 386:0.0036557855 403:0.0081617534 404:0.0067204228 405:0.0066689863 419:0.0031617605 422:0.0061111641 439:0.0017997713 440:0.0016098872 443:0.0013498286 444:0.001754777 456:0.003176067 457:0.0061571123 458:0.0032495873 467:0.0019606447 468:0.0020890203 470:0.0089225955 473:0.013106219 474:0.0030254778 479:0.00090219901 481:0.0094852811 482:0.0043506869 483:0.0039212895 486:0.0012228412 493:0.0025679665 494:0.0067122621 497:0.0011698514 499:0.0076532331 500:0.0044145337 502:0.0056303008 503:0.012803094 504:0.0012950384 513:0.00096416322 529:0.0080679404 538:0.0050863102 545:0.0071623554 548:0.0058492571 549:0.0015192875 552:0.001181668 581:0.0034295318 584:0.018970562 586:0.0035271901 600:0.02537027 601:0.020644436 618:0.012534122 625:0.0059483969 627:0.0010507647 636:0.0031905037 643:0.0060509555 647:0.0041780407 649:0.0034407394 653:0.0084567573 658:0.0039881296 670:0.015952518 682:0.0056605712 685:0.0017288444 687:0.0048519182 696:0.0019716597 708:0.0053175064 720:0.0031335305 721:0.0047857556 722:0.0083560813 749:0.0072213048 753:0.018471338 759:0.0024371904 767:0.0027205846 770:0.0015667652 774:0.0094852811 776:0.0059483969 783:0.0090686157 788:0.015952518 791:0.0035450042 792:0.0047814087 796:0.0043869428 805:0.011964389 807:0.0022072669 809:0.0034073342 813:0.017450823 817:0.0042540049 821:0.004602694 826:0.0044089877 839:0.0024542336 841:0.0047213733 853:0.02699657 876:0.014038216 877:0.0073115709 888:0.0022938263 890:0.0050376374 903:0.0044424734 904:0.0023165373 915:0.011321142 924:0.014422826 933:0.0022497142 934:0.023397028 959:0.0022212367 960:0.029246284 970:0.0022938263 978:0.010027298 983:0.0040808767 995:0.021934714 999:0.0019497523 1003:0.0074671363 1006:0.0031905037 1020:0.0061842361 1025:0.0050136489 1026:0.011321142 1036:0.0053993142 1050:0.0019389802 1052:0.0041533187 1065:0.02699657 1087:0.0081617534 1090:0.029246284 1095:0.016712163 1097:0.017547771 1104:0.0061842361 1123:0.0019073663 1164:0.011506735 1176:0.0030517862 1180:0.0035811777 1206:0.0094852811 1221:0.0036942675 1240:0.0024371904 1244:0.023684107 1249:0.021934714 1250:0.002679049 1255:0.023397028 1261:0.0059483969 1304:0.0083560813 1305:0.010967357 1309:0.012998349 1325:0.0038147327 1350:0.0019283264 1359:0.0063810074 1364:0.011321142 1368:0.0055707209 1407:0.0051865331 1417:0.0026587532 1420:0.006267061 1445:0.0088849468 1452:0.0079762591 1488:0.0083560813 1511:0.0047426405 1514:0.0077990093 1515:0.0034920936 1523:0.002853296 1557:0.050136488 1566:0.37795198 1575:0.0071623554 1587:0.0025805545 1593:0.0018471337 1602:0.02699657 1606:0.0031058001 1622:0.070191085 1642:0.016712163 1667:0.038995046 1679:0.058492567 1693:0.0025068244 1711:0.0048076082 1748:0.0067491424 1796:0.0039881296 1801:0.010967357 1834:0.015258931 1841:0.0020169851 1851:0.0097487615 1857:0.02699657 1874:0.021934714 1876:0.014623142 1882:0.010798628 1888:0.0056605712 1900:0.010027298 1907:0.0055707209 1910:0.012101911 1911:0.0044145337 1919:0.0024890455 1949:0.12762015 1963:0.011698514 2005:0.0053993142 2008:0.018970562 2031:0.018471338 2055:0.023397028 2068:0.010967357 2071:0.0048743808 2083:0.0087738857 2096:0.002679049 2117:0.0066218004 2118:0.0048076082 2169:0.0062116003 2177:0.013498285 2219:0.011698514 2256:0.0039881296 2265:0.0087738857 2283:0.0081617534 2302:0.026321655 2318:0.025996698 2321:0.0079762591 2341:0.032395884 2342:0.018471338 2349:0.012998349 2405:0.020644436 2407:0.023397028 2412:0.012998349 2447:0.011321142 2469:0.031905036 2471:0.0074671363 2490:0.0083560813 2503:0.070191085 2526:0.014038216 2545:0.025068244 2600:0.0085598882 2658:0.11698513 2688:0.0048076082 2749:0.025679665 2754:0.012998349 2758:0.019497523 2761:0.035095543 2814:0.14187559 2834:0.043869428 2877:0.0043869428 2913:0.015258931 2946:0.010027298 3074:0.018471338 3086:0.0081617534 3096:0.023928778 3137:0.0044424734 3154:0.0044424734 3164:0.028455844 3224:0.011698514 3236:0.070191085 3270:0.058492567 3284:0.015258931 3328:0.006267061 3364:0.0089988569 3413:0.0048743808 3432:0.0044994284 3477:0.0097487615 3486:0.0027634285 3533:0.0047426405 3569:0.043869428 3587:0.029246284 3641:0.018471338 3692:0.018471338 3695:0.029246284 3736:0.0050863102 3787:0.29246286 3816:0.25068244 3850:0.058492567 3854:0.035095543 3882:0.087738857 3891:0.058492567 3892:0.010967357 3935:0.087738857 3953:0.17547771 3962:0.0057533677 3975:0.0097487615 4001:0.17547771 4016:0.031905036 4093:0.0054836785 4099:0.0094852811 4146:0.070191085 4155:0.012101911 4193:0.031905036 4279:0.011698514 4339:0.023397028 4346:0.014623142 4483:0.058492567 4543:0.018471338 4554:0.019497523 4565:0.017547771 4600:0.050136488 4647:0.058492567 4660:0.038995046 4778:0.0073115709 4851:0.035095543 4885:0.025068244 4940:0.0097487615 4969:0.02699657 5045:0.011698514 5194:0.17547771 5238:0.0064991745 5245:0.087738857 5256:0.035095543 5436:0.013498285 5545:0.012998349 5837:0.0081617534 5875:0.0057533677 5884:0.012534122 5953:0.0061571123 6060:0.015952518 6075:0.020644436 6236:0.010322218 6309:0.46794054 6423:0.0076294653 6426:0.070191085 6456:0.073115714 6475:0.010635013 6553:0.017547771 6731:0.058492567 6771:0.014623142 6836:0.058492567 6847:0.012998349 6881:0.087738857 7086:0.031196037 7110:0.029246284 7126:0.019497523 7168:0.013498285 7277:0.0094852811 7368:0.012101911 7526:0.082577743 7691:0.038995046 7714:0.031905036 7755:0.17547771 7839:0.014038216 7845:0.0081617534 7872:0.17547771 7928:0.023397028 7951:0.010027298 8009:0.025068244 8054:0.020644436 8274:0.15040946 8346:0.035095543 8382:0.010635013 8451:0.038995046 8520:0.058492567 8543:0.17547771 8573:0.17547771 8729:0.012534122 8829:0.010967357 8870:0.038995046 8981:0.035095543 9619:0.11698513 9740:0.029246284 9818:0.050136488 10059:0.02699657 10067:0.031905036 10139:0.021934714 10182:0.050136488 10327:0.029246284 10873:0.070191085 10985:0.087738857 11034:0.025068244 11045:0.11698513 11396:0.035095543 12147:0.070191085 12529:0.019497523 12641:0.021934714 12757:0.031905036 13397:0.52643311 13649:0.93588108 13829:0.35095543 13937:0.058492567 13946:0.070191085 14078:0.30081892 14235:0.0085598882 14253:0.035095543 14540:0.11698513 14896:0.038995046 15311:0.014038216 15393:0.46794054 15497:0.043869428 15665:0.058492567 15916:0.17547771 16081:0.023397028 16237:0.17547771 16468:0.058492567 17154:0.17547771 17899:0.038995046 17924:0.058492567 18804:0.17547771 18844:0.087738857 19181:0.23397027 19182:0.050136488 19564:0.087738857 19821:0.038995046 20281:0.11698513 20521:0.11698513 20779:0.70191085 20914:0.11698513 21105:0.02699657 21503:0.070191085 22656:0.050136488 22889:0.70191085 23372:0.11698513 23967:6.4575796 24028:0.087738857 24064:1.4038217 24065:0.35095543 24066:0.35095543 24067:0.17547771 24068:0.11698513 24069:0.35095543 24070:0.35095543 24071:0.35095543 24072:0.70191085 24073:0.35095543 24074:0.35095543 24075:0.070191085 24076:0.17547771 24077:1.4038217 24078:0.70191085 24079:0.35095543 24080:0.35095543 24081:0.35095543 24082:0.35095543 24083:0.35095543 24084:0.35095543 24085:0.35095543 24086:0.35095543 24087:0.35095543 24088:0.35095543 24089:0.35095543 24090:0.52643311 24091:0.35095543 24092:0.35095543 24093:0.35095543 24094:0.35095543 24095:0.35095543 24096:0.35095543 24097:0.35095543 24098:0.35095543 24099:0.35095543 24100:0.17547771 24101:0.35095543 24102:1.0528662 24103:0.087738857 24104:0.35095543 24105:0.050136488 24106:0.35095543 24107:0.35095543 24108:0.70191085 24109:0.70191085 24110:0.35095543 24111:0.087738857 24112:0.35095543 24113:0.35095543 24114:0.70191085 24115:0.70191085 24116:0.35095543 24117:0.35095543 24118:0.35095543 24119:0.35095543 24120:0.35095543 24121:0.35095543 24122:0.35095543 24123:0.35095543 24124:1.4038217 24125:0.35095543 24126:0.35095543 24127:0.17547771 24128:0.35095543 24129:0.35095543 24130:0.35095543 24131:0.17547771 24132:0.35095543 24133:0.35095543 24134:0.70191085 24135:0.35095543 24136:0.35095543 24137:0.35095543 24138:0.17547771 24139:0.35095543 24140:0.35095543 24141:0.17547771 24142:0.35095543 24143:0.35095543 24144:0.35095543 24145:3.1585987 24146:0.35095543 24147:0.35095543 24148:0.35095543 24149:0.17547771 24150:0.35095543 24151:0.35095543 24152:0.17547771 24153:0.35095543 24154:0.17547771 24155:0.35095543 24156:0.35095543 24157:0.35095543 24158:0.35095543 24159:0.35095543 24160:1.4038217 24161:1.7547771 24162:1.0528662 24163:0.35095543 24164:0.35095543 24165:0.35095543 24166:0.17547771 24167:0.35095543 24168:0.35095543 24169:2.8076434 24170:0.35095543 24171:0.35095543 24172:0.35095543 24173:0.35095543 24174:0.35095543 24175:0.35095543 24176:0.35095543 24177:0.17547771 24178:1.0528662 24179:0.35095543 24180:0.35095543 24181:0.17547771 24182:0.70191085 24183:0.35095543 24184:0.17547771 24185:0.35095543 24186:0.17547771 24187:0.35095543 24188:3.5095541 24189:0.23397027 24190:0.35095543 24191:0.35095543 24192:0.35095543 24193:4.2114649 24194:0.23397027 24195:0.70191085 24196:0.17547771 24197:1.0528662 24198:0.35095543 24199:0.35095543 24200:0.35095543 24201:0.35095543 24202:0.35095543 24203:0.35095543 24204:0.35095543 24205:0.35095543 24206:0.35095543 24207:0.35095543 24208:0.35095543 24209:0.35095543 24210:0.087738857 24211:0.11698513 24212:0.11698513 24213:0.17547771 24214:0.17547771 24215:0.35095543 24216:0.35095543 24217:0.087738857 24218:0.35095543 #
0.00266669232680158711443207941727 6:0.069702722 12:0.0040135924 13:0.0013940544 14:0.0030571369 17:0.00096541166 23:0.0046221963 24:0.0089362459 27:0.023234241 28:0.0099575315 30:0.0020321494 34:0.00088231289 38:0.0037474581 40:0.0068069063 41:0.0063366108 42:0.01201771 43:0.026808739 48:0.0022104457 54:0.0048971465 55:0.014211234 56:0.0015252236 57:0.0045857052 64:0.0011278758 66:0.006061106 67:0.0016877172 71:0.0102504 74:0.0048811426 75:0.012391594 77:0.0036303499 78:0.0034167999 79:0.0066383542 82:0.00086479803 90:0.0060203886 93:0.025322212 95:0.0048023527 98:0.0055986121 100:0.010518519 103:0.010761702 107:0.0042415448 108:0.017084001 114:0.0055144555 115:0.055430867 120:0.073927127 121:0.011115818 124:0.0014024692 131:0.025815822 134:0.094578043 153:0.0036879745 164:0.002125083 165:0.0099170534 172:0.0033727123 183:0.0087128403 186:0.0019254895 189:0.00090758747 190:0.0055210073 197:0.0024485732 198:0.0035562613 204:0.0030130858 208:0.0066173468 209:0.0048070843 213:0.0022778667 215:0.0026502935 225:0.0035744985 228:0.0041489713 230:0.014322476 236:0.0017964619 237:0.0016209935 240:0.010976806 246:0.001034165 256:0.0067454246 263:0.0071125226 264:0.0019690034 270:0.0047096433 271:0.0012860281 273:0.0020145294 276:0.017872492 288:0.00088231289 291:0.002241245 293:0.0017513246 294:0.0068335999 303:0.004874316 304:0.002376229 312:0.0041989591 314:0.0145214 315:0.020391753 317:0.0017084 319:0.0017168158 324:0.003649357 325:0.0074151829 338:0.0091714105 351:0.010101844 352:0.0091060558 355:0.0024717276 361:0.00075110688 362:0.0013508279 367:0.00094962836 373:0.0013885004 378:0.0040290589 384:0.0014643428 386:0.0018151749 388:0.0059070103 394:0.0091714105 401:0.0047096433 402:0.0020744856 404:0.0022245548 405:0.0016556466 411:0.0013508279 418:0.1742568 419:0.0094192866 436:0.0014461145 467:0.0058410103 468:0.0020744856 478:0.0037075914 479:0.00089592184 481:0.076078855 485:0.00092936959 486:0.0024286662 493:0.011050431 494:0.00095222297 497:0.001161712 501:0.0022484749 502:0.0018637091 503:0.0014957666 517:0.0012491527 525:0.0030044275 535:0.011914995 539:0.0057133376 540:0.016595885 541:0.0019361867 552:0.0011734464 561:0.0026604091 600:0.0041989591 619:0.017425681 627:0.0031303617 647:0.0020744856 653:0.0041989591 667:0.011242374 685:0.0017168158 702:0.0089362459 722:0.0020744856 723:0.0027550482 727:0.0024202333 754:0.0031683054 771:0.010723495 774:0.047096431 792:0.00094962836 793:0.0027442016 794:0.0014283344 796:0.0021782101 813:0.0057764687 815:0.0022778667 839:0.002437158 841:0.00078142062 859:0.0023080371 879:0.0062234569 900:0.0042850031 903:0.0029410431 904:0.0011502099 912:0.004468123 940:0.0083979182 949:0.0041989591 959:0.0022057823 981:0.087128401 1022:0.0041989591 1025:0.0024893829 1028:0.0017084 1029:0.0077447467 1037:0.0102504 1052:0.0020622106 1073:0.0022778667 1122:0.6509971 1132:0.0055762175 1142:0.0063366108 1152:0.0087128403 1180:0.0035562613 1207:0.0061142738 1219:0.012750497 1235:0.0082979426 1254:0.0039830124 1263:0.0083979182 1268:0.0067021847 1303:0.23234239 1304:0.016595885 1309:0.0064539555 1335:0.007076418 1337:0.0096809333 1338:0.0087128403 1342:0.0058085602 1359:0.0063366108 1367:0.12446915 1373:0.074681483 1387:0.069702722 1422:0.0030571369 1426:0.0026402546 1433:0.0047741588 1452:0.039603818 1511:0.0047096433 1522:0.031683054 1523:0.0056668879 1536:0.0049086423 1540:0.031683054 1541:0.019361867 1552:0.0029535051 1581:0.020106554 1653:0.040213108 1662:0.0057133376 1680:0.0056211869 1804:0.034851361 1841:0.0020029517 1898:0.0054455251 1943:0.0037075914 2008:0.0047096433 2014:0.0043564201 2017:0.034851361 2096:0.0079812277 2118:0.0047741588 2143:0.0036685641 2157:0.0076316847 2203:0.015841527 2304:0.0040059034 2343:0.015841527 2363:0.0072606998 2618:0.034851361 2752:0.058085598 2804:0.011814021 2809:0.0067672543 2880:0.0041489713 2969:0.0051251999 2997:0.0205008 3018:0.0096809333 3025:0.0091714105 3116:0.0063366108 3148:0.049787655 3295:0.099575311 3305:0.069702722 3309:0.017425681 3322:0.016595885 3328:0.0062234569 3369:0.015841527 3413:0.019361867 3441:0.034851361 3523:0.049787655 3584:0.0217821 3586:0.038723733 3587:0.1161712 3646:0.0061142738 3648:0.058085598 3694:0.23234239 3695:0.087128401 3702:0.017425681 3704:0.023234241 3708:0.02845009 3737:0.034851361 3771:0.0065757283 3778:0.0054455251 3859:0.018342821 3891:0.63894159 3913:0.05227704 4009:0.058085598 4132:0.031683054 4212:0.0040524835 4269:0.0087128403 4396:0.053617477 4414:0.0435642 4432:0.069702722 4553:0.0050509218 4554:0.019361867 4664:0.0063366108 4772:0.046468481 4851:0.017425681 4936:0.013940544 4973:0.0074151829 5034:0.087128401 5061:0.024893828 5062:1.6205882 5067:0.011242374 5157:0.018342821 5213:0.0099575315 5214:0.0047741588 5294:0.026808739 5303:0.023234241 5539:0.038723733 5850:0.0435642 5875:0.0057133376 5913:0.0205008 5988:0.087128401 5991:0.029042799 6010:0.069702722 6031:0.0082979426 6156:0.0047096433 6217:0.023234241 6392:0.011242374 6423:0.0075763827 6752:0.030305531 6892:0.81319839 6938:0.01201771 7011:0.012446914 7046:0.015841527 7142:0.029042799 7277:0.0094192866 7281:0.034851361 7441:0.01201771 7460:0.019361867 7570:0.031683054 7628:0.15841527 8298:0.0099575315 8500:0.01161712 8544:0.024893828 8761:0.099575311 9004:0.0217821 9094:0.038723733 9232:0.1161712 9292:0.023234241 9298:0.018342821 9498:0.0205008 9504:0.024893828 9648:0.1742568 9670:0.024893828 9740:0.029042799 9936:0.087128401 10269:0.015841527 10671:0.018342821 11233:0.1742568 11269:0.1742568 11319:0.1742568 11411:0.0217821 12127:0.0094192866 12588:0.069702722 12850:0.029042799 12897:0.0435642 13086:0.034851361 13119:0.024893828 13182:0.0435642 13282:0.1161712 13448:0.069702722 13463:0.049787655 13639:0.069702722 13685:0.1161712 13747:0.1306926 14033:0.031683054 14052:0.034851361 14073:0.038723733 14158:0.031683054 14235:0.051001988 14283:0.049787655 14315:0.087128401 14350:0.087128401 14443:0.026808739 15660:0.1161712 16001:0.024893828 16193:0.077447467 17568:0.029042799 18705:0.1742568 18765:0.1742568 18785:0.031683054 19094:0.087128401 20154:0.3485136 20155:0.1742568 20156:0.3485136 20157:0.3485136 20158:0.087128401 20159:0.1742568 20160:0.3485136 20161:0.3485136 20162:0.3485136 20163:0.3485136 20164:0.3485136 20165:0.058085598 20166:0.3485136 20167:0.3485136 20168:0.1742568 20169:0.3485136 20170:0.1742568 20171:0.3485136 20172:0.3485136 20173:0.3485136 20174:0.3485136 20175:0.1161712 20176:0.3485136 20177:0.3485136 20178:0.1161712 20179:0.3485136 20180:0.3485136 20181:0.3485136 20182:0.3485136 20183:0.3485136 20184:0.3485136 20185:0.3485136 20186:0.3485136 20187:3.8336496 20188:0.3485136 20189:0.3485136 20190:0.3485136 20191:0.3485136 20192:0.3485136 20193:0.3485136 20194:0.3485136 20195:0.3485136 20196:0.3485136 20197:0.069702722 20198:0.1161712 20199:0.1161712 20200:0.3485136 20201:0.3485136 20202:0.3485136 20203:0.1742568 20204:0.5227704 20205:0.3485136 20206:0.3485136 20207:0.024893828 20208:0.1742568 20209:2.4395952 20210:0.3485136 20211:3.8336496 20212:0.1742568 20213:0.1161712 20214:0.69702721 20215:0.3485136 20216:0.3485136 20217:0.13940544 20218:0.087128401 20219:0.1742568 20220:0.3485136 20221:0.3485136 20222:0.058085598 20223:0.3485136 20224:0.3485136 20225:0.087128401 20226:0.3485136 20227:3.8336496 20228:0.3485136 20229:0.3485136 20230:0.1161712 20231:4.5306768 20232:0.3485136 20233:0.1742568 20234:0.3485136 20235:0.3485136 #
-0.00266669232680158711443207941727 2:0.0018366422 12:0.027325781 13:0.0046173185 14:0.0011250776 16:0.0044741458 17:0.0095927669 23:0.0010206274 30:0.0044871899 34:0.0029223533 38:0.0074472879 40:0.0067636501 41:0.013991874 48:0.0024404433 54:0.003604464 55:0.00672425 56:0.0016839235 58:0.004275295 64:0.0012452315 68:0.0023109701 74:0.0032334162 75:0.0025651769 82:0.0085930247 84:0.007507835 90:0.0088624153 92:0.0079063671 93:0.0088285245 95:0.0075743413 98:0.0077264365 99:0.0050297584 100:0.0015483965 107:0.00078047981 114:0.0085235313 115:0.01195832 116:0.0015577998 120:0.012388638 121:0.0050533502 124:0.036387317 134:0.10298852 141:0.010570784 156:0.016729414 167:0.002009277 172:0.003723644 175:0.0021616658 177:0.0041373819 185:0.0028085879 186:0.0010629186 189:0.017034378 190:0.0045716022 192:0.0028714668 194:0.0024508059 197:0.003604464 208:0.0048705889 209:0.0053072628 212:0.0024508059 218:0.096194133 220:0.0016585195 225:0.005919639 235:0.014411106 236:0.0019833841 237:0.0044741458 238:0.0042991792 246:0.0022835403 250:0.0015148682 255:0.0047503277 266:0.0030297365 270:0.0038997622 274:0.014250983 284:0.0029484793 285:0.0058123344 288:0.0019482357 291:0.0049488945 294:0.0075446381 297:0.0019143111 304:0.0096194129 309:0.0016656993 312:0.0046358621 315:0.0040933676 317:0.0028292392 321:0.016032355 328:0.0041823536 347:0.0036997744 352:0.0073116682 355:0.0054578232 361:0.027365573 367:0.0010484374 371:0.0037723191 378:0.0044482835 386:0.0020040444 399:0.005919639 402:0.0022903364 403:0.0089482917 404:0.012280102 405:0.0091395853 422:0.0086144004 436:0.0015965832 439:0.005919639 440:0.00176503 456:0.0069642812 467:0.0021495896 473:0.0063863327 474:0.0049755587 478:0.0040933676 479:0.0029674284 481:0.0055996585 483:0.0021495896 485:0.0010260708 486:0.0040220544 493:0.0018769588 494:0.003153906 496:0.0069959369 497:0.0038477653 499:0.0071920846 500:0.0048399563 503:0.0082570072 504:0.0014198396 506:0.0019531804 513:0.0031712351 517:0.0041373819 521:0.02565177 525:0.003317039 530:0.017228801 531:0.0058299475 541:0.004275295 544:0.0098660653 545:0.0078525823 549:0.0049970979 550:0.0065216362 561:0.0029372254 564:0.0089482917 566:0.0032064712 569:0.0082452111 570:0.005919639 581:0.008773406 597:0.0091613457 606:0.0079335365 615:0.0024508059 621:0.0027882357 627:0.0023040511 636:0.0034979684 637:0.0068710097 645:0.013500931 647:0.0068710097 649:0.011316957 661:0.010125699 665:0.0027882357 671:0.0051996829 682:0.0062060733 687:0.0035463276 688:0.017489843 695:0.0054193879 696:0.0043233316 699:0.016032355 709:0.0085505899 713:0.042752948 720:0.0034355049 721:0.0017489842 724:0.0062871985 725:0.0035300599 727:0.0013360296 749:0.0015834426 753:0.013500931 759:0.0026720592 767:0.014913819 778:0.0069959369 781:0.0024985489 783:0.0049712732 786:0.0051303538 792:0.0073390622 796:0.0048097065 798:0.0080161775 807:0.0024199781 813:0.0042516743 815:0.0075446381 817:0.0093279164 821:0.0025231249 826:0.011601303 839:0.0026907451 841:0.0051763658 849:0.0052709114 856:0.010869394 859:0.017837323 866:0.0060121333 870:0.010688237 874:0.0048097065 884:0.0078525823 888:0.0050297584 890:0.0055231079 898:0.016729414 900:0.001576953 903:0.0032470594 904:0.0012698895 913:0.033458829 933:0.0024665163 954:0.0038477653 957:0.0073995488 959:0.0024352944 970:0.0025148792 972:0.038477652 986:0.0054968079 1005:0.0038477653 1028:0.0037723191 1036:0.011839278 1050:0.0021258371 1052:0.0022767843 1067:0.0073995488 1073:0.0050297584 1074:0.042752948 1104:0.0016950509 1132:0.0030782123 1176:0.003345883 1186:0.0096194129 1226:0.0054193879 1244:0.0023605924 1281:0.0064129424 1335:0.0019531804 1348:0.0049330327 1356:0.024048533 1375:0.006634078 1403:0.0025651769 1441:0.0080161775 1445:0.0016235297 1451:0.016032355 1453:0.0050628493 1523:0.0062565291 1529:0.03206471 1587:0.0028292392 1593:0.0020251398 1606:0.0034051021 1643:0.0075446381 1693:0.0027484039 1694:0.019048342 1696:0.0031282646 1705:0.0065216362 1744:0.020251397 1746:0.0044227187 1756:0.0067504654 1777:0.0038096686 1800:0.010125699 1801:0.0040080887 1816:0.0038096686 1831:0.0083647072 1855:0.0080161775 1884:0.0080161775 1888:0.002068691 1895:0.0056584785 1911:0.0048399563 1919:0.0027289116 1928:0.0046358621 1941:0.0080581475 1963:0.012825885 1964:0.027484039 2060:0.0060594729 2078:0.016729414 2096:0.0029372254 2142:0.016729414 2143:0.0040502795 2165:0.0049330327 2214:0.0098660653 2250:0.0054193879 2256:0.0043724608 2261:0.0085505899 2335:0.010125699 2339:0.022633914 2341:0.005919639 2343:0.0034979684 2355:0.016032355 2438:0.013268156 2440:0.017489843 2492:0.0081867352 2546:0.0068710097 2552:0.0054968079 2625:0.096194133 2693:0.0083647072 2696:0.06412942 2730:0.024048533 2757:0.0038866317 2776:0.0062060733 2860:0.0057429336 2877:0.0048097065 2880:0.022903366 2887:0.0036645385 2955:0.0057429336 2971:0.0063078119 2975:0.0060121333 2989:0.0078525823 3005:0.054968078 3081:0.0057429336 3084:0.0077732634 3117:0.027484039 3132:0.011316957 3137:0.0097411778 3164:0.020798732 3167:0.0049970979 3264:0.0061075641 3348:0.0063078119 3453:0.010688237 3461:0.024048533 3660:0.019238826 3799:0.0078525823 3832:0.0062060733 3904:0.0085505899 4039:0.034979686 4050:0.012825885 4078:0.054968078 4103:0.020251397 4155:0.026536312 4563:0.015705165 4591:0.023219274 4614:0.0083647072 4724:0.012412147 4747:0.027484039 4826:0.019238826 4851:0.019238826 4891:0.017489843 4967:0.019238826 5023:0.016729414 5097:0.048097067 5144:0.024048533 5248:0.034979686 5431:0.081619263 5432:0.013268156 5584:0.012825885 5639:0.19238827 5661:0.022633914 5758:0.010993616 5828:0.016729414 5837:0.0089482917 5904:0.03206471 6053:0.096194133 6060:0.017489843 6111:0.096194133 6289:2.5576322 6342:0.011316957 6357:0.84169865 6386:0.054968078 6509:0.029598195 6526:0.018322691 6582:0.020251397 6668:0.048097067 6685:0.029598195 6724:0.19238827 6729:0.048097067 6938:0.013268156 7080:0.017489843 7248:0.013742019 7313:0.022633914 7334:0.011316957 7338:0.0067504654 7719:0.0087449215 7851:0.029598195 7894:0.12825884 7979:0.010993616 8382:0.011659895 8817:0.03206471 8981:0.038477652 8997:0.034979686 9236:0.042752948 9253:0.042752948 9295:0.03206471 9440:0.03206471 9797:0.088794582 9822:0.096194133 9824:0.017489843 9835:0.048097067 10038:0.016032355 10154:0.038477652 10164:0.076955304 10259:0.06412942 11123:0.082452118 11274:0.19238827 11381:0.022633914 11412:0.038477652 11414:0.036645383 11797:0.02565177 11811:0.034979686 11920:0.048097067 12053:0.25651768 12074:0.19238827 12075:0.38477653 12076:0.38477653 12077:0.38477653 12078:0.038477652 12079:0.38477653 12080:0.02565177 12081:0.38477653 12082:0.054968078 12083:0.096194133 12084:0.076955304 12085:0.042752948 12086:0.19238827 12087:0.38477653 12088:0.38477653 12089:0.38477653 12090:0.76955307 12091:0.38477653 12092:0.38477653 12093:0.19238827 12094:0.38477653 12095:0.034979686 12096:0.38477653 12097:0.38477653 12098:0.38477653 12099:0.38477653 12100:0.38477653 12101:0.076955304 12102:0.12825884 12103:0.19238827 12104:0.38477653 12105:0.38477653 12106:0.12825884 12107:0.38477653 12108:0.19238827 12109:0.12825884 12110:0.022633914 12111:0.054968078 12112:0.38477653 12113:0.38477653 12114:0.096194133 12115:0.12825884 12116:0.38477653 12117:1.9238827 12118:0.038477652 12119:0.38477653 12120:0.076955304 12121:0.38477653 12122:0.38477653 12123:0.38477653 12124:0.19238827 12125:0.19238827 12126:0.38477653 12127:0.010399366 12128:0.12825884 12129:0.38477653 12130:0.38477653 12131:0.12825884 12132:0.38477653 12133:0.12825884 12134:0.076955304 12135:0.38477653 12136:0.38477653 12137:0.38477653 12138:0.38477653 12139:0.038477652 12140:0.38477653 12141:0.027484039 12142:0.38477653 12143:0.042752948 12144:0.38477653 12145:0.38477653 12146:0.12825884 12147:0.076955304 12148:0.12825884 12149:0.19238827 12150:0.38477653 12151:0.38477653 12152:0.12825884 12153:0.12825884 12154:0.06412942 12155:0.19238827 12156:0.096194133 12157:0.096194133 12158:0.19238827 12159:0.076955304 12160:0.38477653 12161:0.76955307 12162:0.38477653 12163:0.029598195 12164:0.19238827 12165:0.027484039 12166:0.38477653 12167:0.018322691 12168:0.38477653 #
